6913 50
0 -0.745171 -0.076875 -0.009063 -0.088472 1.007820 0.172827 -0.069052 -0.535187 0.062201 -0.491471 0.147315 -0.271170 0.097654 0.014815 -0.746362 0.000154 -0.245671 -0.362656 -0.122253 -0.565833 -1.184295 0.175497 -0.102179 0.042233 -0.210763 0.179672 0.192779 -0.525071 -0.492287 -0.168583 0.263855 0.500086 0.076370 0.216958 -0.048775 -0.834679 0.098349 0.409283 0.091677 0.625759 0.646329 0.112324 0.405172 0.723285 -0.432876 -0.468918 -0.589514 -0.150435 0.345816 -0.547292
1 0.060557 0.222589 0.321301 0.489188 0.381302 0.560870 -0.383573 -0.268604 0.923558 -1.104442 -0.418416 0.004774 1.052229 -0.091563 -0.633911 0.186221 -0.310528 0.176870 -0.031020 -0.382660 -1.445738 0.179821 -0.078062 0.198445 -0.084158 0.295808 0.266769 -1.030390 0.477861 0.027121 0.110462 0.526617 0.729196 0.260565 -0.821088 -0.575392 0.157360 0.037664 0.520592 0.681241 0.389355 0.688344 -0.313484 0.249455 0.360755 0.227924 -0.840403 0.268815 -0.093856 0.111252
2 -0.404513 0.251008 0.484813 -0.311187 0.158990 0.306220 0.051495 -0.572468 0.267424 -0.633534 -0.309070 -0.152385 0.250509 -0.109709 -0.864347 0.247653 0.118159 0.339369 -0.338438 -0.837494 -0.603530 -0.388237 0.445217 -0.044656 -0.031607 0.270574 0.175702 -0.674658 -0.258193 -0.289080 0.600307 0.031981 0.099094 0.168069 -0.255528 -0.263787 0.028522 0.486282 0.511173 -0.089833 -0.161802 -0.148082 0.338050 0.276391 -0.475645 0.232245 -0.916017 0.153136 -0.128287 0.051926
3 -0.306847 0.022548 0.370190 0.243339 0.505196 -0.633992 0.452508 -0.269674 0.271337 0.466855 -0.461218 0.188742 0.030683 0.005146 -0.988554 0.589734 -0.202183 0.297529 0.130935 -0.570340 -1.069348 0.659973 0.089739 -0.012512 -0.397159 0.836725 0.812840 -0.053003 -0.473569 -0.353059 -0.047234 -0.213372 -0.100470 0.181850 -0.145742 -0.515396 -0.362922 -0.129223 -0.226073 0.250505 0.053624 -0.096613 -0.164963 -0.076510 -0.351444 0.424015 -0.693410 0.494813 0.216104 -0.313339
4 -0.697101 -0.497068 0.499211 0.326996 0.306603 0.067494 -0.059976 -0.474642 0.964250 0.318937 -0.465451 0.201740 -0.039238 0.163235 -0.290492 0.738477 0.060851 -0.320111 0.232612 -0.333966 -0.719221 -0.006000 -0.145825 -1.002452 -0.928865 0.687991 0.405752 -0.160263 -0.304459 -0.412224 0.032966 0.192023 0.228131 0.117965 -0.600825 -0.239506 -0.357715 -0.309341 0.009566 0.810836 0.222604 0.398151 0.259469 0.068958 -0.744914 0.045961 -0.718241 0.043836 0.000129 -0.394932
5 -0.878852 0.310616 -0.250192 0.320329 0.945482 0.045862 0.019553 0.078266 -0.023849 -0.877276 -0.553370 0.082365 0.071375 -0.429370 -0.589176 0.792334 -0.734234 -0.170317 0.621945 -0.189049 -0.926310 0.529193 -0.041795 -0.332828 -0.267148 1.094886 0.519263 -0.224316 0.045157 -0.130984 -0.047076 0.034446 0.699173 0.150906 -0.574009 -0.342017 -0.148050 -0.256398 -0.259217 0.996346 0.080531 0.257522 0.311466 -0.120737 0.322212 -0.431089 -0.828551 0.378857 -0.177521 -0.424539
6 -0.123155 -0.290787 1.045060 -0.044705 0.329792 0.076411 -0.075800 -0.615847 0.617527 -0.220019 -0.023147 -0.273370 -0.087895 0.125246 -0.250401 0.225129 -0.063361 0.007255 0.150531 -0.443621 -0.657692 -0.028868 -0.095020 0.140867 0.437496 0.625812 0.070041 -0.340823 -0.114822 -0.124211 0.337278 -0.054866 0.323537 0.126477 -0.432493 -0.348389 0.367557 0.141630 -0.108549 0.541078 0.137281 0.224958 -0.195337 -0.021853 0.104940 -0.148208 -0.540923 0.202703 0.347718 -0.388897
7 -0.240312 -0.249974 0.127411 -0.626612 0.060364 -0.094624 0.423464 0.322039 -0.007483 -0.474287 0.014134 -0.238558 -0.094884 -0.064269 -0.635501 0.051216 -0.033240 0.187972 -0.031145 -0.114503 -0.490260 -0.212588 0.371954 0.024636 -0.425043 0.110883 -0.247545 -0.347596 0.446871 0.349413 0.138908 0.187038 0.247768 0.159183 -0.214127 0.009556 0.217506 0.195654 -0.270306 0.046076 -0.101526 -0.035437 -0.042275 0.198424 0.057456 -0.109154 -0.432205 0.337768 -0.271064 -0.497967
8 -0.594533 -0.476665 0.420177 0.464171 0.279631 0.107057 0.637675 -0.758632 -0.216241 -0.351009 0.178884 -0.170302 -0.262670 0.644625 -0.218216 0.351002 -0.314214 0.171147 0.473144 -0.814061 -0.901230 -0.282436 0.421585 -0.169451 -0.169747 0.515817 -0.140091 -0.260972 0.039075 -0.289352 -0.030213 0.515175 -0.181840 0.650495 -0.378152 -0.081318 0.715318 0.376103 -0.326908 -0.048700 0.180624 0.609518 0.447493 -0.080701 -0.364490 0.277375 -0.845167 0.201337 -0.327970 -0.412433
9 -0.072021 -0.408426 -0.247225 0.202263 0.112899 -0.045390 0.610211 -0.182482 0.492479 -0.083981 -0.178047 -0.181630 0.044586 -0.284992 -0.350615 0.098396 -0.391826 -0.072199 -0.262337 -0.134792 -0.190862 0.149888 0.049328 -0.111298 -0.082081 0.084341 -0.163433 -0.034491 0.117899 -0.381770 0.133171 -0.160871 0.160752 0.312579 -0.086744 -0.208531 -0.048341 -0.065271 -0.082424 0.371936 -0.003286 0.044678 0.144006 -0.475180 0.147321 0.053448 -0.961262 -0.118229 0.082099 0.317410
10 -0.393165 0.282083 0.076742 0.682161 0.451570 0.136177 -0.289217 0.041957 0.291362 -0.036244 0.252653 0.174350 -0.102117 -0.156810 0.075770 -0.211948 -0.018137 0.147845 -0.152569 -0.573747 -0.385235 0.005968 0.482763 -0.059437 -0.149032 0.074208 -0.014021 -0.237043 0.327251 -0.123316 0.113489 0.116708 0.143328 -0.103355 -0.041419 0.165273 -0.123506 -0.141671 -0.017293 -0.115344 0.013698 0.239392 -0.033185 -0.112693 0.065183 0.206133 -0.000259 -0.386047 0.190152 -0.038303
11 -0.275772 -0.265304 -0.054267 0.212661 -0.215121 -0.468360 -0.458468 -0.134708 -0.125341 -0.546035 0.174088 0.108648 0.196044 -0.097405 -0.007115 -0.032728 0.632105 0.383836 -0.301381 -0.016903 -0.097560 0.037725 0.376220 -0.474733 -0.067548 0.147117 0.175488 -0.179177 -0.394921 -0.082640 0.072371 0.217247 0.268685 -0.407842 -0.102705 -0.617446 -0.151722 0.089957 -0.042511 0.153338 0.056812 -0.039187 0.119909 -0.184164 -0.038599 0.211817 0.039997 0.409540 -0.372266 -0.233861
12 -0.039468 0.007353 0.146829 0.297871 0.646251 0.017882 0.045255 -0.434308 0.190697 0.062521 0.492170 -0.157175 0.135557 0.033461 -0.541088 0.320148 -0.274258 -0.331955 0.099133 -0.381590 -1.608061 -0.262835 0.268399 -0.472940 0.582015 0.254574 -0.085309 -0.227273 -0.304495 -0.025205 0.051754 1.021128 0.559059 0.969264 -0.098329 -0.756726 0.351892 0.246050 0.376604 0.788392 0.026109 0.300749 0.024549 0.348817 0.037373 -0.089996 -0.520440 0.368288 0.577216 0.451242
13 0.053562 0.327761 0.217862 -0.269969 0.438070 -0.227633 0.010810 -0.979649 0.767257 -0.162598 0.051847 -0.714654 0.204463 0.192850 -0.193132 0.338356 -0.029430 0.126396 -0.411377 0.074933 -1.430131 -0.181578 -0.007398 -0.659551 -0.212597 0.682859 -0.037509 -0.586235 0.060185 0.510185 0.373359 -0.169893 0.721707 -0.011609 -0.104793 -1.136525 0.435042 -0.033916 0.330275 0.415429 -0.079595 0.712979 0.130266 -0.027949 0.339799 0.451849 -0.404545 0.770820 0.446416 -0.314132
14 -0.326264 0.251274 0.103265 0.083622 0.551720 -0.168959 -0.380775 -0.611271 -0.273715 -0.366068 -0.327549 -0.255155 0.137024 -0.159373 -0.424487 0.368626 -0.058947 0.099665 -0.278287 -0.615502 -1.143522 0.086030 0.127980 -0.208610 -0.389201 0.043942 0.246430 -0.748762 -0.090636 -0.203627 -0.137809 0.283745 0.650811 0.108519 -0.244307 -0.406455 0.289154 0.248674 0.242915 0.159867 -0.012200 0.459892 0.511058 0.227108 0.086652 0.441244 -0.308230 0.352727 0.521460 -0.396962
15 -0.488432 0.015954 -0.094722 -0.227823 0.092536 -0.018126 0.441151 0.307815 0.628934 0.153888 0.404632 0.571063 0.282185 0.265990 -0.620403 0.684373 0.024322 -0.130553 0.380392 -0.801825 -0.971761 0.454528 0.397066 -0.155233 0.026640 0.489189 -0.035563 -0.563858 0.401146 -0.562743 0.729765 0.576810 0.653424 0.887365 -0.139088 -0.559927 1.002620 -0.225158 -0.306465 0.211452 -0.048151 0.480386 -0.459214 0.088600 -0.271304 0.222380 -0.408379 -0.620866 0.118972 -0.684172
16 -0.404646 0.105227 0.168667 0.295406 0.806894 -0.184539 0.084178 0.001786 0.463129 -0.557818 -0.157538 0.576847 0.101817 0.349556 -0.522319 0.782517 0.026343 -0.211168 -0.122070 -0.840168 -0.138940 -0.327432 0.040579 -0.614097 -0.230101 0.755179 -0.240882 -0.419429 -0.221625 -0.295264 0.059208 0.579559 0.208153 0.483781 -0.152313 -0.545986 -0.231660 0.254318 0.444052 0.549393 -0.541496 -0.359101 0.019761 -0.426566 -0.331602 0.102201 -0.682468 0.023275 -0.180974 -0.033579
17 -0.952880 -0.019725 0.289357 0.042990 0.354429 -0.424820 -0.219431 -0.257949 0.032023 -0.756569 -0.502409 -0.514716 -0.351095 0.512367 -0.476111 0.258274 0.275784 -0.178598 0.524317 -1.084543 -0.241531 0.091114 0.221329 -0.195357 -0.110773 0.359758 0.448330 -0.699488 -0.109090 -0.521787 0.129686 -0.123165 0.186990 0.615223 -0.036827 -0.743491 0.452454 0.226338 -0.185109 0.310971 -0.317804 0.347240 0.262350 0.300974 -0.401080 0.097100 -0.332113 0.263624 0.220863 -0.083783
18 -0.380967 -0.047849 0.624671 -0.209671 0.199397 -0.922390 -0.278816 -0.365102 0.712607 -0.776438 -0.038803 -0.587705 0.037060 0.536381 -0.469664 0.838911 -0.138682 -0.243118 -0.073168 -0.474765 -0.424372 0.382356 -0.055092 0.010035 0.201414 0.073284 0.251391 -0.507663 -0.218810 0.029776 0.448579 0.318867 -0.101651 0.316421 -0.449296 -0.553384 -0.133416 -0.131048 0.082705 0.673301 0.350994 0.248580 0.192594 -0.407227 0.247626 -0.034290 -0.824876 -0.102490 0.300973 -0.262137
19 -0.647667 0.342003 0.350118 -0.081734 0.473635 -0.484547 0.011171 -0.792943 0.286280 -0.392671 -0.150788 -0.381614 -0.010691 0.365443 -0.835713 0.338980 -0.249780 -0.232337 0.530474 -0.758233 -0.434338 -0.017577 -0.106151 -0.605514 -0.075362 0.583006 -0.056930 -0.258493 0.106020 -0.241526 0.515301 0.536518 0.232641 0.584676 -0.183556 -0.324038 -0.237603 -0.442271 0.141589 0.574493 -0.218038 0.296520 0.322944 0.054033 -0.076781 0.105198 0.159053 -0.660239 0.610234 -0.361222
20 -0.028218 0.092105 0.581027 0.904833 0.569243 -0.779299 -0.724469 -0.543984 -0.223964 -0.256536 0.081157 -0.377829 0.303705 -0.465655 -0.034242 0.766744 0.502369 -0.096697 0.259016 -1.307957 -1.595919 -0.345467 0.138853 -0.397218 0.159658 0.524048 0.299701 -1.023533 0.214163 0.024880 0.690301 0.345097 0.356681 0.002904 -0.104283 0.123499 -0.110763 0.601362 -0.053112 0.090196 0.305220 0.002095 0.599338 -0.321982 -0.432193 0.186971 -0.124563 -0.335832 -0.556873 -0.420977
21 -0.601218 0.092164 0.451789 0.044075 0.327881 0.119246 0.076967 -0.445217 0.257834 0.166468 -0.135602 -0.212825 -0.121876 0.221232 -0.013978 0.290596 -0.156682 -0.109858 0.057557 -0.695012 -0.492776 -0.097161 -0.405922 0.159216 -0.143491 -0.093007 0.182415 -0.868545 -0.230068 -0.109734 0.371697 0.776584 0.044480 -0.055877 -0.741146 -0.388324 0.284520 -0.141678 -0.360576 0.917528 0.033581 0.262205 -0.105648 -0.120128 -0.084073 0.232024 -0.315909 -0.175271 0.128948 -0.413129
22 -0.785243 0.131139 -0.017477 0.272795 0.618784 -0.279506 0.143607 0.026952 0.141665 -0.336146 -0.650161 -0.064687 0.032662 -0.631868 -0.367483 -0.137804 0.346589 0.290970 0.717586 -0.794609 -0.788103 -0.180135 0.178229 -0.543480 -0.071857 0.020389 0.283310 -0.842965 0.077202 0.658606 0.666804 0.757282 0.400907 0.407797 -0.816421 -0.529712 -0.431236 0.427101 -0.211760 0.666278 0.112818 0.441806 -0.282783 0.110114 -0.298988 0.417549 -0.676390 0.356498 0.554763 -0.022214
23 -0.774172 0.300781 0.586220 -0.572390 0.470070 -0.379028 -0.124196 -0.238754 0.146152 -0.429362 -0.053609 0.129804 0.401213 -0.234314 0.042105 0.721178 -0.705671 -0.173524 0.877001 -0.443597 -1.116080 0.045187 -0.714818 0.183800 -0.109634 0.342699 -0.069249 -1.147226 -0.256002 -0.383850 0.452739 0.708922 0.040457 -0.204209 -0.337346 0.177128 0.495948 0.189759 0.089991 0.361359 0.662557 0.733376 0.105685 0.151383 0.120880 -0.050433 -1.209702 0.061309 0.249276 -0.442390
24 -1.080459 0.503068 -0.001633 -0.163596 0.351266 0.034730 0.284921 -0.545745 0.336831 -0.226216 -0.082283 -0.261373 0.299732 -0.536455 -0.191417 0.054246 0.263900 0.120346 0.204937 -0.025749 -1.399753 0.182400 -0.282466 -0.157794 0.167194 0.748470 -0.042979 -0.362313 -0.300425 -0.353817 -0.073585 -0.019270 0.294726 0.577740 -0.828059 -0.306297 0.125430 0.452163 -0.029843 1.059106 -0.107789 -0.370106 0.271508 -0.463869 -0.201216 -0.117651 -0.518218 -0.189535 -0.025081 -0.591209
25 -0.077981 0.476424 0.056727 -0.071191 0.897480 -0.433992 -0.404063 -1.112531 0.099930 -0.827123 -0.190167 0.365966 0.076882 -0.584317 -0.567779 0.197752 0.331669 -0.658167 0.136366 -0.226705 -1.395052 -0.285952 -0.233756 -0.408745 -0.684101 0.193843 0.527282 -1.103301 -0.710696 -0.222877 0.329551 0.257347 0.026798 0.543915 -0.299399 -0.349370 0.085944 0.178150 -0.067819 -0.178023 0.448150 0.409570 0.892724 0.384043 -0.501557 -0.339172 -0.560219 0.411682 -0.042541 -1.347530
26 -0.485897 0.030988 -0.056547 -0.022510 0.384280 -0.277197 0.091271 -0.674638 -0.015560 0.090955 -0.097921 -0.055840 0.571040 -0.024515 -0.359052 0.271328 -0.180452 -0.113843 0.407529 -0.521143 -0.709989 0.420205 -0.392617 -0.161091 -0.451756 0.463341 0.451483 -0.179236 0.080619 -0.127748 -0.131850 0.260434 0.629926 0.037928 -0.490991 -0.481219 0.114750 0.061034 0.361295 0.117965 -0.137326 0.058097 0.207354 -0.290900 -0.227455 -0.052053 -0.545876 0.252928 0.604728 -0.229065
27 -0.584434 0.292400 0.283176 -0.601600 0.369823 -0.275543 0.212933 -0.623770 0.499847 -0.454024 -0.311762 0.071036 0.009120 -0.206142 -0.468558 0.559310 -0.088654 -0.380504 0.408529 -0.499281 -0.612353 0.218938 -0.232955 -0.281358 -0.171277 -0.073120 -0.072205 -0.354012 -0.455385 0.301414 0.279375 0.271953 0.727038 -0.052687 -0.629626 -0.063618 0.172069 -0.160697 -0.134780 0.393215 0.137701 0.175883 -0.387742 0.343027 0.090671 0.255159 -0.921221 -0.359034 0.730872 -0.488995
28 -0.277465 -0.152671 0.575852 0.169989 0.330439 0.020303 -0.053550 -0.443339 0.092304 0.061315 0.076733 -0.208677 0.038725 0.005290 0.153107 0.378783 -0.188079 0.227773 0.402100 0.032632 -0.656463 0.143307 -0.303136 -0.276711 0.062672 0.273289 0.130232 -0.180281 -0.172129 0.358074 -0.035003 0.814430 0.300027 0.341194 -0.634462 -0.747575 0.198117 -0.173397 0.253018 0.839944 0.205391 -0.037645 -0.270734 -0.210975 0.168782 -0.043261 -0.495658 0.370316 0.001302 -0.127993
29 -0.403572 0.922710 0.083439 0.556005 0.683690 0.432094 0.101066 -0.242469 -0.156244 -0.146741 -0.477460 -0.276093 -0.023324 -0.264326 -0.482381 0.761111 -0.178076 -0.284360 0.626091 -0.190572 -1.391518 -0.357158 -0.331517 0.189083 -0.690431 0.576881 0.117430 -0.954684 0.250435 -0.163656 -0.046960 0.446862 0.548388 0.754871 -0.517525 -0.191107 0.393941 0.300870 -0.181565 0.378608 0.210838 0.600869 0.034083 0.273824 0.160639 0.014524 -0.731226 0.098415 0.032894 0.089581
30 -0.512598 0.254966 0.818638 -0.534769 0.444218 -0.139679 -0.443105 -0.639259 0.661323 -0.264699 -0.262987 -0.335413 0.608103 0.043217 0.055582 0.884982 0.380526 0.032639 0.504461 -0.268536 -0.452943 0.582626 0.275834 -0.539955 0.239110 0.695451 -0.349998 -0.475561 0.001760 0.310866 -0.421664 0.507610 0.423107 0.458344 -0.360596 -0.529984 -0.073428 0.013921 -0.471649 0.211019 -0.299836 -0.141226 0.100187 -0.234124 -0.502985 0.169781 -0.884799 0.117307 0.108103 -0.984517
31 -0.413189 0.651205 -0.219081 0.083855 0.485786 -0.176528 -0.293172 -0.532290 0.526511 -0.538595 -0.567377 -0.203010 0.073056 -0.181902 -0.634181 0.450070 -0.144549 -0.050998 1.007040 -0.182047 -0.732819 -0.438882 -0.081217 -0.172685 -0.052491 0.484884 -0.077729 -0.511448 -0.016124 -0.549829 0.522883 0.561221 0.501425 0.157916 -0.552123 -0.102846 0.240806 -0.128124 -0.114224 0.209448 -0.048629 0.593119 0.190950 0.404660 -0.866411 0.629559 -0.773390 0.267786 0.125898 -1.266503
32 -0.921306 0.076518 0.212515 -0.400277 0.605039 -0.946306 -0.467725 -0.901359 -0.427826 -0.508039 0.244241 0.243748 0.137043 -0.331459 -0.944978 -0.173955 0.478650 -0.068482 0.235756 -0.352158 -1.020721 -0.180928 0.052369 -0.192263 -0.459113 0.412423 -0.260338 -1.403822 -0.132405 -0.222737 0.023497 0.001452 0.174672 0.366024 -0.436081 0.303708 0.002335 0.360353 0.153192 -0.141414 0.210979 0.339996 0.473984 0.527715 -0.697407 -0.557725 -0.526437 0.467263 0.172142 -1.233874
33 -0.453137 0.284906 -0.017704 -0.448234 0.174323 -0.366757 0.279730 -1.049665 1.356421 -0.141604 -0.205772 -0.383011 0.410517 0.326241 -0.412187 0.563271 -0.003100 0.551546 0.785016 -0.336171 -1.070001 0.360099 0.499422 0.509820 0.410594 0.407430 -0.513812 -0.406706 -0.092170 -0.551943 0.461692 0.131008 0.548231 0.284690 -0.438239 -0.136994 0.158308 0.220034 0.092498 0.429230 0.272660 -0.379954 -0.430948 0.406238 -0.396669 0.258222 -0.637555 -0.027707 0.677904 -0.342871
34 -0.075788 0.493674 -0.164586 0.325720 0.320354 -0.580625 -0.090960 -0.326635 0.684889 -0.203494 0.361835 -0.556761 0.226467 -0.465247 -0.244227 0.919076 0.032636 -0.238498 0.546611 -0.390533 -0.981822 0.224225 0.183822 -0.265075 -0.236223 0.740122 0.207945 -0.775035 -0.013332 0.089404 -0.012741 0.266320 0.154469 0.464155 -0.502732 -0.058834 0.488941 -0.043800 0.268305 0.430005 -0.598932 0.390433 0.380706 0.665364 -0.171561 0.029456 -0.485121 -0.045791 0.483793 -0.758067
35 -0.409241 0.492896 0.563417 -0.286709 0.820484 0.129401 -0.020904 -0.185472 0.486131 0.086618 -0.321366 0.010939 0.379447 -0.302290 -0.206361 0.707933 -0.363767 0.298011 0.608576 -0.524067 -1.132531 0.348679 0.240288 -0.120024 -0.463569 0.318606 0.013287 -0.469043 0.196066 -0.334169 0.951858 0.481964 0.169887 0.040197 -0.659803 0.141487 0.139890 -0.110096 0.620535 0.931285 0.144298 0.525117 -0.058663 0.013724 -0.072206 -0.094276 -0.722422 0.118659 0.178294 -0.621133
36 -0.419432 0.479775 0.301398 -0.337034 0.811628 0.313379 0.116475 -0.132584 0.153403 -0.099958 -0.034244 -0.284237 0.486177 -0.023192 0.056936 0.298077 0.043511 0.006740 0.334079 -0.833899 -0.819270 0.346843 -0.325596 -0.199357 0.046892 0.911983 0.216065 -0.607347 -0.123888 -0.187044 0.351713 0.829096 0.259115 0.272110 -0.773135 -0.317468 0.490633 -0.059869 0.331294 0.728264 0.823619 0.302127 0.130205 0.206442 0.190876 0.021162 -0.589168 0.296543 0.575017 -0.310747
37 -0.594429 0.304934 0.621490 0.346060 0.904611 -0.608558 -0.355578 0.293563 0.434801 -0.568141 -0.237077 0.332493 0.114313 -0.075229 0.220367 1.208506 -0.080084 -0.428132 0.392749 -0.382784 -0.904874 -0.540183 -0.134738 0.113208 0.778437 0.537385 -0.406230 -0.497888 -0.766525 0.285379 0.035085 0.443947 1.127542 0.283306 -0.970200 0.551445 0.288456 0.499714 -0.500165 0.572785 0.708067 0.207116 0.317690 0.170469 0.005512 -0.330343 -0.955247 -0.396359 -0.222877 -0.005034
38 -0.630040 0.398271 0.060367 0.154110 0.775408 -0.001248 -0.019681 -0.535452 -0.358261 -0.116850 0.458858 -0.357483 0.042751 0.089401 -0.567725 0.260237 -0.218531 0.070212 0.366908 -0.999613 -0.637249 -0.131687 0.075194 0.253531 -0.086563 0.191035 -0.277296 -0.686868 -0.374379 -0.236418 -0.230210 0.486498 0.453513 0.415838 -0.170666 0.124797 0.140691 0.017583 0.012853 0.495996 -0.581093 0.300524 -0.270873 -0.289765 -0.037344 0.107474 -0.394691 0.129424 0.317259 -0.602289
39 -0.375426 -0.392852 0.718722 -0.457206 0.359275 -0.200701 0.527540 -0.480989 0.912473 0.469439 -0.313201 0.054635 0.600658 -0.067091 -0.129335 0.542501 0.440185 0.609778 -0.318584 -1.070072 -1.033178 -0.098078 0.620711 -0.408776 -0.378939 0.186326 -0.469894 -0.479321 -0.488140 -0.155182 0.296656 0.078757 0.809946 0.473961 -0.409268 -0.322320 0.024908 -0.337635 -0.298789 0.227368 0.283855 0.726119 -0.554390 0.402558 0.383919 -0.156924 -0.176230 0.192796 0.374308 -0.919073
40 -0.921236 1.059065 0.178286 0.145218 0.919773 -0.444909 -0.216066 -0.266553 0.521775 -0.156470 -0.226063 0.092845 0.048849 0.156608 -0.234507 0.534605 -0.357850 0.080218 0.569621 -0.131787 -1.271384 -0.077890 -0.548755 0.269095 -0.293409 0.807392 0.246085 -0.659484 -0.427220 -0.293430 0.520211 0.247037 0.623282 0.075779 -0.986582 0.257879 0.065969 0.306594 -0.067736 0.455253 0.140041 0.466108 0.410023 0.563048 -0.066980 0.026507 -0.473181 0.201215 0.526245 -0.671253
41 -0.438381 0.454504 0.293910 0.365708 0.659585 0.167757 -0.452173 -0.537904 0.150308 -0.262032 -0.138119 -0.228452 0.036344 0.149540 -0.348409 0.514275 -0.048641 -0.115942 0.381995 -0.493191 -0.447782 0.333335 0.425273 -0.434902 0.181613 0.614520 -0.323775 -0.229569 0.030374 -0.015051 0.454234 0.045387 0.545501 0.097246 -0.614191 -0.201320 0.568488 0.126160 -0.020940 0.228264 -0.120136 0.100981 0.328871 0.194462 -0.208244 0.128956 -0.718286 0.204592 -0.197836 -0.454307
42 -0.098140 -0.248223 0.152562 0.509958 0.351476 0.094661 -0.641834 -0.345812 0.588261 0.018693 -0.121536 -0.252987 0.077273 -0.703461 0.338015 0.153745 0.168117 0.028284 0.233226 -0.253584 -1.143327 -0.017925 -0.025295 -0.275525 0.247889 0.917025 0.180098 -0.467689 -0.360043 0.240907 0.890541 0.353227 1.020339 0.316199 -0.866966 0.139405 0.370967 -0.036197 0.225880 0.429996 0.037716 0.233752 -0.136333 -0.063467 0.190015 -0.048761 -0.756556 0.205890 0.198843 -0.764730
43 -0.204807 0.391653 0.281619 0.559010 0.406021 -0.675029 -0.306167 -0.452004 0.230321 -0.216375 0.100246 -0.291019 -0.023215 0.214127 -0.062080 0.250579 0.096749 0.023615 0.180134 -0.248656 -0.891176 -0.465411 0.152836 -0.275315 0.092186 0.502539 -0.205592 -0.239845 -0.237048 0.105712 0.379950 0.301987 0.426691 -0.017039 -0.744720 -0.550258 -0.077217 -0.248631 0.048427 0.264370 0.129994 0.028146 0.319199 -0.032944 0.077990 -0.027666 -0.218502 -0.112812 0.209433 -0.659017
44 -0.553204 -0.037204 0.546647 -0.079574 0.557429 -0.731342 -0.149630 -0.183806 0.058656 -0.941969 -0.635091 -0.228195 -0.009779 -0.120889 -0.217219 0.235058 0.070727 0.176628 0.397096 -0.215766 -0.924957 0.042474 -0.375429 -0.326919 -0.090281 0.239198 -0.156778 -0.451623 0.034981 -0.631312 0.588724 0.425216 0.785683 -0.194802 -0.539510 -0.149844 0.463030 0.000565 0.232762 0.653219 0.213909 0.222501 -0.018754 -0.177222 -0.371165 -0.439370 -0.407358 0.313067 -0.402024 -1.062669
45 -0.728122 -0.579480 -0.082209 -0.344713 0.827938 -0.094704 -0.041568 -0.709344 0.445019 -0.712636 -0.328024 0.086644 0.039405 -0.264913 -0.349373 0.428068 -0.325111 -0.084417 0.277183 -0.443194 -1.045986 0.557223 0.147446 -0.066176 -0.169286 0.253924 -0.183227 -1.019030 -0.363088 -0.321587 0.533430 0.309686 0.673451 0.388757 -0.806524 -0.283502 -0.328940 0.093043 0.308226 0.603463 0.634868 0.340126 0.166038 0.073675 0.018714 0.346011 -0.419855 0.163392 -0.192067 -0.634934
46 -0.688660 0.537002 0.067151 0.616349 0.621632 0.839843 -0.072467 -0.281340 0.342564 0.442283 -0.452669 -0.376359 0.161604 -0.322718 -0.875913 1.045799 0.230309 -0.329379 0.726403 -0.377255 -1.800482 0.078940 0.031362 0.151146 -0.171498 0.600306 0.093259 -0.448570 0.022085 0.684728 -0.188263 0.827682 0.627977 0.101542 -0.232194 0.798832 0.279509 0.123370 0.237680 0.231356 0.200017 0.398044 0.371404 -0.542665 -0.533764 0.670592 -0.520829 0.617348 0.570451 -0.908699
47 -0.182550 0.264938 0.432269 -0.095326 0.805699 -0.101102 -0.040507 -0.172539 0.149399 -0.304868 0.299934 -0.027202 0.296415 0.196548 -0.024671 0.653112 0.205686 -0.155103 0.356651 -0.608460 -0.828288 -0.171711 0.006207 -0.314885 -0.359585 0.144569 0.151661 -0.818617 -0.297947 0.244649 -0.023562 -0.077892 0.378830 0.222801 -0.457165 -0.161001 0.245410 -0.178759 -0.487977 0.789020 0.423337 0.330642 0.171494 -0.105130 0.034103 0.070778 -0.891264 0.337508 0.167214 -0.253043
48 -0.550572 -0.305151 0.538345 -0.146989 0.179050 0.007314 0.004617 -0.577402 0.413290 0.084419 -0.286383 -0.093926 0.321480 -0.559485 -0.240411 0.190633 0.690872 0.209012 -0.113308 -1.049989 -1.234964 0.163670 0.113639 -0.211509 -0.328874 0.110583 0.010229 -0.212496 0.155020 0.103871 0.782913 0.616081 0.520414 0.227036 -0.364354 -0.434260 0.551919 0.250971 -0.713672 -0.080172 -0.210059 -0.009194 0.005089 0.001864 -0.310335 -0.153729 -0.640739 0.044778 0.335954 -0.043431
49 -0.666577 0.000065 -0.042569 0.373943 0.869031 -0.476488 -0.206445 -0.380297 0.631052 -0.668305 -0.518442 0.105853 0.245053 -0.104878 -0.036963 0.423866 -0.243332 -0.144203 0.143674 -0.726900 -0.702437 -0.158607 0.245812 -0.133168 -0.229480 0.054227 -0.209620 -0.276256 0.272957 -0.775577 0.558561 0.560891 0.599220 -0.046250 -0.340941 -0.716975 0.474091 -0.242800 -0.034883 0.362077 0.625289 0.008901 0.200547 -0.104204 -0.055953 0.214175 -0.589784 0.161897 0.027980 -0.713115
50 -0.095851 -0.303307 0.416383 0.065887 0.505378 0.252919 -0.139040 -0.412901 -0.167388 -0.063034 0.009242 0.013703 0.020908 0.299114 -0.126082 0.408156 0.256783 -0.247908 0.218625 -0.259720 -0.750774 -0.130658 0.215674 -0.566679 -0.299781 0.779640 -0.030855 -0.274784 -0.151124 -0.149103 0.255320 0.427462 0.035326 0.452301 -0.409437 -0.003284 -0.174266 -0.121717 -0.230911 0.570865 -0.035722 0.089514 -0.060131 0.014147 0.001719 -0.199760 -0.241627 -0.144967 0.061547 -0.160671
51 -1.063478 0.200791 0.779637 0.115147 0.430556 -0.716908 -0.297458 0.041122 0.498679 -0.368621 0.084556 -0.646333 -0.032766 -0.106062 -0.101948 0.412370 0.442039 -0.058785 0.165042 0.071838 -1.525906 0.076527 0.280324 -0.408855 0.077595 -0.113701 0.636557 -0.266381 -0.284573 -0.067910 0.160521 1.042214 1.312208 0.226485 -0.199257 -0.281665 -0.161378 0.254006 -0.324465 0.125128 -0.152291 -0.472527 0.111305 -0.505953 -0.013246 0.212098 -0.861343 -0.895321 -0.181364 -0.413735
52 -0.368761 0.321284 0.382752 -0.100871 0.157540 0.227583 0.068267 -0.468912 0.153073 0.125398 0.063315 0.307714 0.311421 0.275151 0.012951 0.019796 0.180673 -0.146901 0.142509 -0.419212 -0.229614 0.142041 0.002613 -0.367170 -0.351181 0.541181 0.404445 -0.821940 -0.288911 0.184998 -0.173803 0.276955 0.085543 -0.252757 0.038936 -0.209567 0.261600 -0.178452 -0.095299 0.290666 0.335113 -0.055690 0.287771 0.128092 -0.478230 0.050669 -0.263671 0.171353 0.428715 -0.173613
53 -0.881197 -0.048215 -0.272389 -0.628514 0.466665 -0.466571 -0.267848 -0.358205 1.014704 0.576058 -1.035234 -0.348969 0.510492 0.153979 -0.326388 0.635842 0.177753 0.047160 0.333877 -0.836554 -0.626453 0.030708 0.326254 -0.303022 -0.250409 0.132329 -0.249684 -0.550432 0.187014 -0.083144 0.731601 0.014470 0.643388 0.744228 0.345079 -0.783928 0.472789 -0.245969 -0.210436 0.587539 0.177461 0.022416 0.558081 -0.082041 0.068009 0.721268 -1.037340 0.197999 0.021773 -0.960079
54 -0.642975 -0.170890 0.400261 0.156793 0.433076 -0.295605 0.000997 -0.423724 -0.347439 -0.049258 -0.390003 -0.051377 0.579290 0.206524 0.002920 0.098985 -0.457880 0.736059 -0.204732 -0.548448 -0.171673 0.189677 0.502173 -0.265283 0.051891 0.452454 -0.099571 -0.605279 -0.152639 0.109524 0.323914 0.085375 0.531599 0.003091 0.162567 -0.333836 0.374440 -0.329973 -0.040214 0.443064 0.542364 -0.253848 0.154813 -0.386654 0.097110 0.141005 -0.467461 0.179863 0.493147 -0.199953
55 -0.439970 0.048887 0.298913 0.158866 0.742753 -0.188350 0.220310 -0.273289 0.723895 -0.683422 0.042141 -0.179573 0.132521 0.325493 -0.527936 -0.055558 0.123365 0.132884 0.479176 -0.519901 -0.639932 0.411816 -0.147059 -0.324239 0.197883 0.274713 0.117189 -0.468132 -0.046800 -0.412093 0.622616 0.593404 0.913863 -0.038176 -0.071458 -0.470626 0.282687 -0.068662 0.595654 0.422937 0.071161 0.414453 -0.075277 -0.129335 0.018034 0.303840 -0.797567 -0.157458 0.071622 -0.105067
56 -0.128292 -0.186710 0.223131 -0.093564 0.279398 -0.227356 -0.440923 -0.506239 -0.250441 0.269750 0.318539 -0.031666 0.228060 0.017768 -0.094702 -0.018598 0.054414 0.071119 0.063407 -0.381601 -0.543293 -0.024487 0.343617 0.182271 -0.428405 0.423173 -0.014689 -0.157972 -0.276966 -0.132881 0.329818 0.281497 0.480804 -0.599810 -0.452838 -0.478007 0.544654 0.029772 0.236308 0.312690 -0.117553 0.162592 0.057195 0.084614 -0.296253 -0.106864 -0.582681 0.068848 -0.393567 -0.052492
57 -0.722032 0.295458 0.383319 -0.253062 0.803084 -0.638734 -0.358893 -0.357519 -0.051247 -0.585741 -0.036980 -0.030005 0.312855 -0.356393 -0.477658 -0.372421 0.075949 0.416765 0.094405 -0.587605 -0.978336 -0.278062 0.349689 -0.371419 -0.159910 0.422974 -0.044407 -0.259674 0.212240 -0.415789 0.419234 0.007542 0.330476 0.476496 -0.466945 -0.207650 0.059097 -0.377171 -0.364646 0.504414 -0.013953 0.297256 -0.115970 -0.309177 0.185100 -0.133365 -0.447196 0.115870 0.046367 -0.634868
58 -1.032414 -0.154429 -0.039629 0.383335 0.496840 0.078797 -0.005759 0.127796 0.347802 0.046766 0.014333 -0.675171 -0.088391 -0.085767 -0.719675 -0.134034 -0.069502 -0.298905 0.264397 -0.847921 -0.638427 0.214727 -0.054241 -0.415484 -0.119617 0.502884 0.064953 -0.423154 -0.498724 -0.262005 0.883701 0.879167 0.639691 0.370673 -0.632785 0.042706 0.515319 -0.431344 0.169339 -0.077358 -0.134026 0.326557 0.285808 0.433819 -0.747093 -0.387305 -0.723574 -0.495201 0.474284 -0.192975
59 -0.189168 0.266830 -0.460007 0.006423 0.335038 0.034105 -0.504152 -0.598932 -0.022995 -0.416404 -0.237698 -0.087287 -0.042500 0.164698 -0.054827 0.178717 -0.049386 -0.294642 0.372668 -0.148231 -0.721894 -0.074307 0.081775 -0.101240 -0.179585 0.439142 0.219495 -0.677436 -0.278042 -0.082436 0.386309 0.378631 0.013998 -0.128871 -0.458909 -0.644756 0.342599 -0.213878 0.108182 0.638045 -0.744035 0.048990 0.064872 -0.370509 0.025309 0.047082 -0.677868 -0.248047 0.500809 -0.187117
60 -0.735661 -0.130450 0.289364 -0.607943 0.660526 -0.214712 -0.267133 -0.620512 -0.432039 -0.336378 -0.135489 -0.158357 -0.178096 -0.050209 -0.444277 -0.564067 0.113341 -0.282371 0.099628 -0.431155 -1.142967 -0.018458 0.445724 -0.186858 -0.374071 0.184674 -0.529225 -0.649713 -0.615095 -0.323162 0.321831 0.059844 1.155099 0.158577 -0.052363 0.050317 -0.132571 0.084861 -0.052749 0.603503 0.254391 0.235874 0.342421 0.385547 -0.634309 -0.556680 -0.940810 0.198160 0.201936 -0.971448
61 -0.356597 0.192546 0.539503 -0.319640 0.552970 -0.922660 -0.340433 -0.647210 0.120506 -0.562935 -0.255256 -0.329493 -0.121227 0.399619 -0.278553 0.832680 -0.210353 -0.174456 0.309161 -0.563016 -0.326654 0.016121 -0.306612 -0.523054 -0.297931 0.298572 -0.154186 -0.382370 -0.030372 0.031127 0.694644 0.654537 0.566618 0.171192 -0.339446 -0.154613 0.056665 -0.146312 -0.228358 -0.005626 0.123123 0.383954 -0.107303 -0.108330 0.025618 -0.105642 -0.162504 -0.074347 0.575673 -0.303526
62 0.169754 -0.134597 -0.003291 -0.069037 0.396835 -0.234099 0.030969 0.082616 0.181911 0.061252 -0.545528 -0.272055 0.385196 -0.338155 -0.103142 0.604179 -0.354956 -0.162693 0.321829 -0.186165 -0.322344 0.120486 0.067612 -0.403497 -0.661655 0.494179 0.003789 0.261996 -0.199100 -0.390244 0.056499 0.017387 -0.222016 0.225292 0.412334 -0.107163 0.442133 -0.095446 0.156168 0.399884 -0.014416 0.054546 0.369191 -0.151661 -0.227710 0.236192 -0.062390 -0.174938 0.056218 -0.160445
63 -0.517274 0.016874 0.532447 -0.105334 0.455742 0.092058 -0.168167 -0.322556 0.245839 -0.710251 -0.269157 -0.090854 0.296588 0.012594 0.134326 0.403461 -0.722660 -0.414180 -0.069849 -0.780670 -0.613762 0.016088 0.171173 -0.403688 -0.664917 0.160598 -0.070350 -0.802805 -0.150841 0.311547 -0.083786 0.602226 0.153807 0.059363 -0.467923 -0.618368 -0.101021 0.086106 0.276201 0.127063 -0.539733 0.130751 0.204646 -0.374988 -0.174440 -0.084399 -0.606186 -0.010055 0.754927 -0.574285
64 -0.923706 0.143312 0.075014 -0.036438 0.297143 -0.250889 0.121364 -0.866320 0.017662 -0.456593 -0.236792 0.161258 0.800773 0.116944 -0.465769 0.606241 -0.270589 0.006223 0.314408 0.030175 -0.960963 0.114383 -0.313390 -0.532862 -0.330347 0.099129 -0.206266 -1.009752 -0.125098 -0.006072 0.201260 0.426369 0.454550 0.506523 -0.770687 -0.088671 0.316346 -0.135602 0.405580 0.601733 -0.114563 0.372694 0.434260 0.035877 0.119661 -0.259854 -0.440020 0.284680 0.219845 -0.467738
65 -0.605380 -0.081973 0.105752 -0.488362 0.778248 -0.157099 -0.132796 -0.230268 0.638079 0.008711 -0.343062 -0.111515 0.171541 -0.317330 -0.546628 0.763330 -0.369655 -0.374570 -0.082306 -0.417667 -1.027074 0.057245 -0.205767 0.071944 -0.047878 0.732746 -0.006101 -0.469004 -0.508181 -0.343402 0.872749 0.177539 0.366536 0.319580 -0.613536 0.077578 -0.166160 0.586818 -0.096498 0.889301 0.242296 0.515741 0.490033 0.161121 -0.223755 -0.045280 -0.576597 0.292671 0.268183 -0.097857
66 -0.076651 0.275089 0.329726 -0.017778 0.509687 -0.071759 0.050358 -0.035286 0.017428 -0.425228 0.047729 -0.360339 0.192213 0.296400 -0.171287 0.185968 0.168426 0.089337 -0.615104 -0.540342 -0.995838 -0.143852 0.435915 -0.770681 -0.019508 0.766340 0.117579 -1.202856 -0.113234 0.333547 0.522739 -0.037688 0.532053 -0.325279 -0.616988 -0.103268 0.743433 0.088039 -0.089619 0.161388 -0.155466 0.138079 0.077437 0.134039 -0.054323 -0.427325 -0.935865 -0.029580 0.269642 -0.035146
67 -0.451492 0.062744 0.571578 0.103883 0.747070 0.340292 0.167431 -0.381574 -0.295984 -0.899406 0.417961 -0.107502 0.259660 0.047175 -0.118789 0.854226 -0.073239 -0.156093 0.680405 -0.537206 -0.644386 0.157220 -0.034565 -0.320538 -0.139223 0.205924 0.239990 -0.876559 0.328498 -0.257495 0.190221 -0.016930 0.147918 0.083598 -0.641858 -0.138353 0.515973 -0.383857 0.200582 0.649403 -0.021186 -0.073161 -0.168070 0.401144 -0.516243 0.071263 -0.936119 -0.030992 -0.224972 -0.500382
68 -0.908254 0.468991 0.218785 -0.655943 1.039086 0.006534 -0.125449 -0.463574 0.073371 -0.604930 0.009925 0.107664 0.011059 0.254629 -0.390546 0.097781 0.117057 -0.554336 0.204025 -0.345088 -1.193454 0.080078 -0.170336 0.058164 -0.456174 0.454304 0.254076 -0.599315 -0.715717 -0.369979 -0.156516 0.173521 0.703805 0.358614 -0.454201 0.311636 0.290548 0.113440 -0.080192 0.282656 0.346931 0.289909 0.155215 0.113515 0.095860 -0.193952 -0.408462 -0.032634 -0.234397 -1.159001
69 -0.205818 0.078653 -0.330542 0.654918 0.837189 0.185210 0.317999 -0.874334 0.417069 0.268648 0.054919 0.280010 0.468667 -0.127720 -0.338418 0.608092 -0.026582 -0.350434 0.425268 -0.506240 -1.461901 0.213773 -0.825764 -0.285181 0.016829 0.864565 0.321976 -0.582820 -0.027273 -0.108507 -0.074776 1.149698 0.622679 0.136537 -0.234288 0.082019 -0.178129 0.102966 0.180395 0.280555 0.454827 0.288395 -0.065576 -0.271044 0.187511 0.200999 -0.794888 0.166198 -0.475129 -0.731028
70 -0.599562 0.596836 0.569670 0.617659 0.291907 -0.033131 0.063003 -0.621928 0.577691 -0.280723 0.673269 -0.203403 0.600449 0.040510 -0.112951 0.808142 -0.482655 -0.299877 0.716574 -0.663766 -0.967191 -0.144131 -0.267173 0.414150 0.022626 0.406990 -0.473476 -0.899645 -0.196744 0.369541 0.492101 0.674396 0.562554 0.336220 -0.758303 0.482310 0.266128 -0.050510 -0.376720 0.479802 0.966844 0.025136 0.697986 0.372892 0.124448 -0.548012 -0.460797 0.628296 -0.273988 -0.688235
71 -0.976073 -0.179155 -0.527758 -0.395525 0.020541 -0.396711 0.451340 -0.646591 0.732236 -0.025492 -0.336881 -0.150648 0.053892 0.656721 -0.382787 0.331509 -0.778968 -0.135587 -0.105875 -0.808081 -0.461185 -0.310590 0.540601 -0.186471 -0.044750 0.642040 0.089275 -0.370972 -0.207773 -0.059966 0.454156 0.068850 0.521282 -0.102160 -0.319704 -0.753633 0.380270 0.078680 -0.578479 0.461660 -0.484892 -0.119476 0.217771 -0.267074 0.103835 -0.072716 -0.894358 -0.303418 0.314136 -0.405079
72 -0.415390 0.281365 0.154723 0.351816 0.719368 -0.375144 0.191919 -0.227462 0.138072 -0.322569 -0.136271 0.012640 0.256524 0.046934 -0.463298 0.177143 0.122935 0.014828 0.310198 -0.635523 -0.378989 0.019123 0.280528 -0.012588 -0.222630 0.731827 -0.434436 -0.454783 -0.082448 0.183568 0.211784 0.358770 0.462738 -0.325251 -0.391472 -0.648969 0.266315 0.242920 0.034243 0.156571 -0.110148 -0.151902 0.436349 -0.276541 0.141826 0.104017 -0.469550 -0.216233 0.163343 -0.365200
73 -0.577121 0.133043 0.243955 -0.153126 0.029665 -0.247669 0.367374 -0.569480 0.715932 -0.419082 0.052398 -0.571569 -0.162697 0.286997 -0.486248 0.654890 0.155905 -0.244440 0.279878 -0.388223 -0.622602 0.012556 0.204055 -0.184919 -0.153620 0.293158 0.018127 -0.612508 -0.452748 -0.144898 0.293643 -0.036046 0.459246 0.448952 0.012117 -0.364307 0.217196 -0.139871 -0.599949 0.114131 -0.356416 -0.086652 0.346043 -0.090185 -0.452823 0.621751 -0.517823 -0.019869 0.389578 -0.554934
74 0.057853 -0.177410 0.369708 -0.024457 -0.043862 -0.013227 -0.119216 -0.325600 0.002949 -0.311300 -0.637173 -0.029664 -0.042977 -0.106623 0.038256 0.087729 0.060314 0.734481 0.549592 -0.496893 -0.455668 0.079446 0.282021 -0.310614 0.024589 0.680480 -0.304667 -0.299943 -0.130325 -0.202867 0.289003 -0.118108 0.089000 -0.021363 -0.539492 -0.120043 0.370005 0.132015 -0.409232 0.779262 -0.265802 0.477886 -0.017811 -0.102579 -0.123464 -0.047190 -0.673870 0.033098 -0.242603 -0.046276
75 -1.467840 -0.254811 0.614879 0.823015 0.007300 -0.182157 0.243165 -1.210118 -0.026029 -0.226378 -0.199427 0.240122 0.125625 0.464710 -0.244382 0.666553 -0.326106 -0.366337 0.071778 -0.682599 -1.002517 0.506593 -0.216656 -0.374134 0.111953 -0.130218 -0.274698 -0.801911 -0.123349 -0.557378 0.877099 0.307001 0.505892 0.460671 -0.653943 0.221583 -0.833756 0.033517 -0.160227 0.523326 -0.112249 -0.153356 0.584092 0.124822 -0.319320 -0.359628 -0.342458 0.221192 -0.037377 -1.064768
76 -0.576766 0.098571 -0.169898 0.182423 0.536401 -0.302961 0.167552 -0.690417 -0.140650 -0.410359 -0.200231 -0.486512 -0.111645 0.112053 -0.413203 0.438379 -0.079757 -0.432411 0.196215 -1.106886 -0.830943 0.057093 -0.120721 -0.307960 0.767898 0.568220 -0.025408 -0.330525 -0.137945 -0.392107 0.616992 0.342663 0.246692 0.290098 -0.554775 -0.120485 0.268421 -0.261131 0.118167 0.503266 0.342161 -0.166827 -0.454103 -0.160957 -0.221575 -0.369995 -0.418468 -0.003410 0.404327 -0.445489
77 -1.003647 0.422975 0.244737 -0.105646 0.424634 -0.528016 -0.050437 -0.173316 0.015853 0.016789 0.097733 -0.665187 -0.014065 0.030021 -0.420681 0.479123 0.044474 -0.090331 -0.016396 -0.704526 -0.399029 -0.073395 -0.109922 -0.148169 -0.234250 0.613945 0.038080 -0.479711 -0.277117 -0.141820 -0.098006 0.522046 0.266301 0.052117 -0.689056 0.357117 0.331046 -0.012648 -0.117641 0.091170 0.211815 0.035307 0.197560 0.087146 -0.004704 0.191215 -0.809354 0.014430 0.404577 -0.587125
78 -0.711726 0.016712 0.189425 0.035016 0.200904 -0.185302 0.144386 -0.820061 0.408998 -0.614090 -0.165409 -0.530632 -0.080251 -0.005393 -0.345767 0.420466 -0.357318 0.076311 -0.187885 -0.286571 -0.325281 -0.218529 0.064349 -0.590088 0.143761 0.599610 0.166407 -0.463435 -0.646998 -0.174016 0.423638 0.565229 0.683920 -0.445610 -0.587787 -0.103231 0.160924 0.091933 -0.385558 0.115763 0.197454 0.482536 0.161489 0.378705 0.355766 0.418717 -0.373622 -0.116591 0.190934 -0.796701
79 -0.688855 -0.055367 0.357547 -0.053186 -0.118192 -0.264651 0.447416 -0.205739 0.460955 -0.125640 0.062885 0.009009 -0.011978 0.049457 0.150869 0.074406 0.007038 0.040809 -0.346247 0.076135 -0.189531 0.031796 0.016184 -0.210738 -0.176446 0.242688 0.098179 -0.067576 -0.224022 -0.607362 0.260259 -0.080769 0.021362 0.002625 0.165982 -0.076938 0.222785 0.588492 0.157412 0.286248 -0.197494 -0.089294 0.353560 0.014538 -0.169432 0.427011 -0.421983 0.085816 0.339819 -0.195242
80 -0.631273 0.122310 0.223001 0.147617 0.200473 -0.124452 0.008656 -0.811692 0.367488 -0.091075 0.074803 0.204411 0.057431 0.084067 -0.580144 0.287251 0.395549 -0.028619 -0.046998 -0.633460 -0.856661 -0.246258 0.082706 -0.846295 0.260947 0.597854 0.048095 -0.288792 -0.448723 0.073118 0.309455 0.332667 0.878813 0.026511 -0.366177 -0.115624 -0.144892 0.062517 0.560793 0.575534 0.454608 -0.364563 0.746549 -0.058124 -0.182143 0.395163 -0.646297 -0.682906 0.049944 0.017285
81 -0.158137 0.406845 0.398217 0.059428 1.152263 -0.158348 -0.107154 -0.157095 0.145063 -0.262566 -0.350185 0.001010 0.101735 -0.079743 -0.367529 0.355287 0.299235 0.099483 0.012234 -0.329705 -0.632931 -0.045211 -0.332977 -0.263789 -0.113948 0.591593 0.384341 -0.415394 0.215087 0.098497 0.323170 0.375176 0.460816 -0.370696 -0.405318 -0.249015 0.241307 -0.031852 -0.134465 0.425499 0.127789 0.658425 0.033030 -0.018978 0.281946 0.236479 -0.718835 0.364046 0.354114 -0.287802
82 0.008659 0.293194 0.329067 -0.481755 0.506413 -0.323902 0.409139 -0.471481 0.495367 -0.808664 -0.356483 -0.444579 0.039798 -0.061983 -0.362980 0.242943 -0.207082 -0.341373 -0.650135 -0.719384 -0.936183 0.248192 -0.379534 -0.685370 -0.584893 0.529610 -0.053860 -0.096846 -0.804629 -0.370705 -0.070625 1.438280 0.685561 0.050666 -0.539291 0.384869 -0.043260 0.025299 -0.695117 -0.176616 -0.131516 0.555372 0.450826 0.620358 0.022203 0.630920 -0.445759 0.601403 0.426210 -1.420121
83 -0.738827 0.255139 0.276340 0.235014 0.944680 0.262488 -0.135588 -0.574007 0.125176 -0.401084 0.006676 -0.329164 -0.173536 -0.031912 -0.332890 0.103992 0.168436 -0.095021 0.240747 -0.455225 -0.924881 -0.091576 0.170703 0.063941 -0.404466 0.148221 -0.049725 -0.265954 -0.773608 -0.153904 -0.487516 0.435396 1.003054 0.294495 -0.176762 -0.638956 0.136803 0.340479 -0.041773 0.488188 0.532654 0.184109 0.007990 0.855042 -0.095472 0.056733 -0.654197 0.023931 0.017656 -1.047266
84 -0.545653 -0.134255 0.296346 0.033444 0.016431 0.282924 0.191736 -0.386596 0.258826 -0.052446 0.254669 -0.178536 0.061175 0.566189 -0.472190 0.499164 0.224146 -0.251021 0.002559 -0.824509 -0.565156 0.125110 -0.127495 -0.574448 -0.070836 0.184922 -0.369843 -1.043750 0.110097 -0.498375 0.300618 0.244077 0.606656 0.089977 -0.601184 -0.160648 0.082529 0.006704 0.154706 0.374791 0.050153 0.157274 0.178047 -0.438056 -0.274441 0.120180 -0.716148 0.161141 0.556964 -0.180539
85 -0.331516 0.524445 0.778191 -0.009227 0.552449 -0.098593 -0.287410 -0.056947 0.462838 -0.221181 -0.280169 -0.071665 0.074807 -0.181906 -0.680568 0.672649 0.464679 -0.185302 0.262612 -0.534294 -0.809274 0.126833 0.005879 -0.221719 0.189255 0.338460 -0.354319 -0.605324 -0.006941 -0.435028 0.256638 0.721514 0.325260 -0.186655 -0.813948 0.236052 0.027054 0.207465 -0.152358 0.066455 0.046618 -0.048980 0.591619 -0.168090 -0.285615 -0.417161 -0.897482 0.297405 0.760225 -1.457698
86 -0.570853 -0.290834 0.585673 -0.687053 0.180237 0.166469 0.118018 -0.696473 -0.582023 0.116371 -0.116811 -0.111295 0.387069 0.201995 -0.960738 0.466870 0.149176 0.047391 -0.624399 -0.423296 -0.976685 0.173228 0.720449 -0.771242 -0.948250 0.495455 0.146160 -0.546874 0.788395 0.031858 0.275767 0.288561 1.157186 -0.157338 -0.903409 -0.731774 -0.161185 0.607626 -0.402065 0.437806 0.596944 0.331592 0.406066 0.505539 -0.649623 0.327123 -0.187015 0.151946 0.210151 -0.729574
87 -0.481476 -0.084214 -0.111252 0.093590 0.778753 -0.083676 -0.291954 -0.767296 0.567648 0.151367 -0.205537 -0.147292 0.324389 0.223874 -0.418008 0.932075 0.036131 0.404112 0.683561 -0.802023 -0.857411 0.518760 0.445799 0.033429 0.132018 0.506302 -0.340778 -0.840624 -0.261304 -0.151656 -0.354645 0.547483 0.173040 -0.093278 -0.984815 0.032975 -0.159011 0.096359 -0.643474 0.237164 0.198324 0.794786 0.486782 0.389965 -0.322454 -0.113994 -0.498578 0.008595 -0.077925 -0.329590
88 -0.355111 0.272745 -0.216019 -0.170439 0.219458 -0.303443 -0.178481 0.013921 -0.389286 -0.193053 0.132704 0.039787 0.316015 -0.237705 0.216662 0.280666 -0.467468 0.178086 0.003792 -0.682399 -0.336878 0.263224 -0.227599 -0.185152 -0.724237 0.707740 0.045043 -0.392401 -0.311415 -0.091285 0.420941 0.400102 -0.109651 0.052935 -0.602248 -0.230094 0.532180 0.307722 0.245545 0.566708 -0.352850 0.093023 0.443827 0.147587 -0.010623 0.150435 -0.690741 -0.311910 0.043832 -0.341847
89 -0.682785 0.257774 0.501126 0.003095 0.193112 -0.477479 -0.383601 -0.188947 0.034111 -0.645125 -0.015875 -0.412814 0.165496 -0.559694 -0.770344 -0.393003 0.766630 0.167854 -0.545885 -0.831329 -0.591968 0.670700 0.370085 -0.243992 0.018008 0.949206 0.501356 -0.309428 -0.056638 0.036777 0.371190 0.727760 0.890775 0.182204 -0.101327 -0.402597 0.192461 0.357748 -0.255847 0.131477 0.377172 0.781402 -0.028554 -0.138519 -0.499662 -0.147124 -0.618253 -0.192293 0.333423 -0.888696
90 -0.030525 0.138235 0.456966 0.179726 0.538343 -0.035097 0.224066 -0.481753 -0.224412 -0.401193 0.404636 -0.256299 0.123072 0.193367 -0.549433 0.259990 0.008215 -0.172873 -0.186515 -0.540401 -0.853535 0.064039 0.391339 -0.166865 -0.545164 0.517106 0.213271 -0.571746 -0.392447 0.151707 0.210866 0.199204 -0.018781 0.176257 -0.117701 -0.251127 0.141024 -0.054674 -0.083896 0.584482 0.506760 0.111098 0.173671 -0.214181 -0.597015 -0.022318 -0.224078 -0.195387 0.365858 -0.409393
91 -0.219846 0.145006 -0.431578 0.032966 -0.077599 -0.001093 -0.440225 -0.369661 -0.289395 -0.080814 0.067207 -0.307344 0.148339 -0.068070 -0.364838 0.340088 -0.262911 0.014437 0.181635 -0.286172 -0.533959 0.052864 0.194452 0.308358 -0.493138 0.661173 0.090998 -0.299120 -0.171473 0.095449 0.145563 0.003824 0.194859 0.222465 -0.077253 0.000675 0.333376 0.088638 -0.315538 0.396620 0.132440 -0.192975 0.025977 -0.091876 0.244395 -0.212884 0.182998 -0.050430 0.523748 0.318832
92 -0.187540 -0.242151 0.293123 0.425375 -0.137378 -0.199953 0.076145 -0.401763 -0.317452 -0.251873 -0.254417 -0.285570 0.191726 -0.122848 -0.283345 0.284901 0.216549 -0.381661 0.261432 -0.603887 -0.644595 0.119107 0.633237 -0.048811 0.242154 0.575642 0.035626 -0.745160 -0.300939 0.108497 0.107151 0.230488 0.327325 -0.145568 -0.523984 -0.034301 0.208815 0.118710 -0.102583 0.554984 0.116290 0.286173 0.035482 0.263980 -0.147191 -0.244762 -0.111501 0.134296 0.108456 -0.361185
93 -0.600620 -0.109407 0.375948 0.078051 0.326258 0.065755 0.189594 -0.766117 0.025807 -0.761572 0.160905 -0.388916 -0.165378 -0.386629 -0.710538 -0.035905 0.264501 0.069855 0.078853 -1.021303 -0.699483 0.790084 0.407855 -0.394234 -0.169529 0.151384 0.585731 -1.090892 0.380940 -0.308905 0.296121 -0.071673 0.438488 0.831612 0.289697 -0.720710 -0.001687 -0.352911 -0.511906 0.348637 0.249120 0.590092 -0.478005 -0.076728 -0.062035 0.110821 -0.667259 -0.123529 0.212287 -0.748454
94 -0.222969 0.228566 0.372660 0.470457 0.236369 -0.419687 -0.061129 -0.408116 -0.065277 -0.257186 0.219591 0.075123 0.000720 -0.038402 -0.103626 0.612872 0.058501 0.139384 -0.521113 -0.417539 -0.636145 -0.126641 0.138981 -0.073476 0.164472 0.424252 -0.089849 -0.226405 -0.506429 -0.260693 -0.105140 0.151031 0.308664 0.431409 -0.252645 0.123426 0.236711 -0.413052 0.185661 0.231968 -0.182869 0.092392 -0.163070 -0.844651 0.168415 0.415785 -0.477502 -0.295416 -0.005909 -0.148883
95 -0.885208 -0.212161 0.564798 -0.641203 0.322146 -0.723063 0.190875 -0.727666 0.900850 0.201591 0.023456 -0.327019 0.509780 -0.218017 -0.757224 -0.107047 -0.509715 0.220076 -0.523936 -0.455200 -0.947536 0.152688 -0.223086 -0.634026 -0.187470 0.029467 -0.032781 -0.432224 0.227177 -0.436937 0.566949 0.412485 0.330283 0.245331 -0.490784 -0.795833 -0.090689 0.679046 -0.104319 0.291531 0.016188 -0.077589 -0.280030 0.139461 0.435819 -0.244857 -1.129028 0.137255 -0.213988 -0.559058
96 -0.338058 0.352950 0.350455 0.298202 0.814289 -0.526633 -0.303921 -0.652817 0.489409 -0.389361 -0.143109 0.020631 0.449366 0.036078 -0.411592 0.548534 -0.294225 -0.470652 0.797257 -0.295347 -0.709468 -0.003975 -0.155035 -0.390283 -0.051802 0.282670 0.207246 -0.453400 -0.849358 -0.136226 -0.125412 -0.059777 0.260183 -0.084528 -0.713542 -0.593604 0.189858 -0.108273 0.420108 0.965314 -0.046429 -0.098333 0.548668 0.032134 -0.237303 -0.211932 -0.305694 0.623119 0.426016 -0.266825
97 -0.756785 -0.053338 0.224914 0.078168 0.485614 -0.336964 0.181072 -0.446529 0.701136 0.120577 -0.513956 -0.323044 0.026552 0.142240 -0.394163 -0.047062 -0.510444 0.122900 0.000193 -0.643451 -0.376338 -0.251489 0.410904 -0.239963 0.186019 0.523369 -0.572072 -0.507863 -0.119813 -0.198748 -0.155673 0.403937 0.523483 0.086280 -0.323641 -0.606877 0.571827 -0.345159 0.306864 0.494966 -0.199340 -0.116249 0.503137 -0.235091 -0.464678 -0.157280 -0.726177 0.102370 -0.178028 -0.258632
98 -1.099676 0.050951 0.024418 0.477935 0.531999 -0.214261 0.220213 -0.122816 0.174758 -0.478618 0.221189 0.087490 0.056057 0.588325 -0.018786 0.491046 -0.184907 -0.249572 0.484737 0.037547 -0.679763 0.189979 -0.126345 -0.064387 -0.549888 0.430802 0.184912 -0.340639 -0.132438 0.222638 0.583700 0.203404 0.391475 0.256114 -0.472492 -0.153512 0.123572 0.276185 0.126918 0.259957 0.210150 0.318599 0.259327 -0.164394 -0.243666 -0.072039 -0.026560 -0.111245 0.470027 -0.532791
99 -0.451474 0.263090 0.169463 0.009126 0.872803 -0.170601 -0.307523 -0.850628 0.207265 -0.411644 0.103531 -0.295353 -0.183293 0.463029 -0.639105 0.275399 -0.182975 0.037718 0.530671 -0.622849 -0.998704 -0.250884 -0.002570 -0.114031 -0.042855 0.092452 -0.107305 -0.311140 -0.574140 -0.079525 0.265874 -0.173555 0.581487 -0.162694 -0.485981 -0.326332 -0.123409 0.367920 0.144613 -0.092516 -0.217532 0.334645 0.114080 0.400907 -0.410549 -0.173196 -0.452356 -0.056084 0.308862 -0.535216
100 -0.043858 -0.276017 -0.045342 -0.418139 0.292055 -0.996395 -0.049065 -1.013533 -0.051482 0.396240 -0.183402 -0.219852 -0.006957 -0.343350 -0.604524 0.073474 0.533418 0.133666 0.015985 -0.452006 -0.707220 -0.020135 0.395148 -0.500936 0.119094 0.694952 0.206420 -0.917796 -0.025398 -0.469548 0.003742 0.227673 0.677240 1.097262 -0.069491 -0.446205 0.454912 0.019020 0.034879 0.126635 0.057870 0.150724 0.601347 0.413798 -0.564676 0.340982 -0.901183 -0.063418 1.278569 -0.596534
101 -0.752635 0.021235 -0.021196 0.217094 0.301298 -0.097124 0.133763 -0.552346 0.083875 -0.654100 -0.133418 -0.141799 0.267406 0.171632 0.277623 0.421742 -0.206440 0.228004 0.298168 -0.251232 -0.641761 0.187979 0.301059 -0.322099 -0.023006 0.345979 -0.105193 -0.918063 -0.137071 0.114846 -0.052808 0.315722 0.309203 0.191983 -0.705849 -0.461506 0.027011 0.039256 0.293958 0.277982 0.042719 -0.159273 -0.306043 -0.052239 0.295016 -0.030068 -0.274524 0.080226 0.149177 -0.529435
102 -0.599814 0.544599 0.021183 -0.202635 0.371503 -0.172234 -0.044697 -0.572537 0.242474 -0.454130 -0.041822 0.044298 0.133288 -0.576092 -0.096940 0.834461 -0.213614 -0.198167 0.435171 -0.692092 -1.121991 0.007555 0.031479 0.210292 0.258543 0.388743 0.073237 -0.797572 -0.247784 -0.444341 0.392627 0.746597 0.751080 0.543994 -0.883685 -0.691526 0.089454 -0.212290 0.284417 0.131990 0.104330 -0.141140 -0.111947 0.057431 0.124204 -0.362847 -0.284446 -0.308835 0.320849 -0.426327
103 -1.431013 -0.497331 0.012254 0.244137 0.991964 -0.407018 -0.353994 0.026051 0.508583 -0.588433 -0.594069 -0.158907 0.949649 0.281466 -0.731746 1.181544 -0.004503 -0.172030 0.829496 -0.475273 -0.522248 0.010001 0.371615 -0.079583 0.323505 0.460468 0.663197 -0.480443 0.163169 -0.895852 0.464509 0.920505 0.735696 0.788103 -0.155067 -1.117853 -0.342608 0.679719 0.106333 0.369014 0.082406 0.418976 0.658194 -0.084227 0.112088 -0.461476 -0.147435 -0.540031 0.290336 -0.439855
104 -0.352214 0.242500 0.328788 0.580833 -0.437592 -0.038018 0.049715 -0.701737 0.126401 -0.021742 -0.099457 -0.021401 -0.079328 0.236403 -0.050825 0.045834 0.064932 0.053387 0.113968 -0.501109 -0.615562 0.142390 0.343044 -0.092321 -0.138791 0.095797 -0.064762 -0.345471 -0.221208 -0.223579 -0.034883 0.041319 0.451831 -0.332763 -0.438572 -0.074234 0.207411 -0.079703 -0.341396 0.388259 -0.368971 -0.336014 0.111728 -0.268755 -0.150322 0.030078 -0.511121 0.241648 0.111014 -0.095552
105 -0.143481 0.020048 0.610403 0.608633 0.943921 0.096321 -0.264148 -0.552583 -0.021043 -0.293894 -0.353140 -0.130718 -0.026813 0.201541 -0.508850 0.160377 -0.328337 -0.456025 0.404753 -0.653082 -0.886339 0.338135 -0.148199 -0.339086 -0.160748 0.606650 -0.336204 -0.107614 -0.656729 -0.016743 -0.309079 0.949263 0.172643 0.159840 -0.178795 -0.531651 0.155329 0.177651 -0.127450 0.537715 -0.114696 0.278896 0.046038 0.201263 -0.274424 0.328407 -0.325171 -0.051157 0.063012 -0.057625
106 -0.537486 0.227542 -0.041000 0.028048 0.639486 0.075000 0.213483 -0.232302 0.068490 -0.430906 -0.288389 0.115255 -0.104362 0.006190 -0.544207 0.793815 -0.021911 -0.160979 0.286120 -0.608426 -1.114920 -0.236218 -0.125736 -0.657890 -0.176433 0.118544 -0.172022 -0.216158 -0.413408 -0.061086 0.130761 0.279244 0.139736 -0.127571 -0.258777 -0.148270 -0.007451 -0.131405 -0.357258 0.501825 0.279390 0.412774 -0.216778 0.360891 0.050245 0.198733 -0.596958 0.232072 0.048713 -0.052605
107 -0.351499 0.221211 0.173401 0.024507 0.786872 0.123957 0.530758 -0.170965 0.092803 -0.432704 -0.265037 0.077710 0.016203 0.285411 -0.500452 0.584652 -0.046152 -0.162183 -0.207089 -0.481445 -0.859266 -0.314976 0.155460 0.129793 -0.205543 0.365993 0.176874 -0.324655 -0.262522 -0.294642 0.348379 -0.053592 0.523240 0.076776 -1.125296 -0.504696 0.043670 -0.159972 0.444625 0.725604 0.046602 0.434811 0.475865 0.039831 -0.100041 0.231279 -0.436245 -0.197280 0.104260 -0.741588
108 -1.124126 0.562482 0.015702 0.139303 0.642611 -0.090921 -0.225232 -0.128650 0.593554 0.017208 0.228744 -0.034736 0.497890 0.392619 -0.014814 0.364481 -0.020963 0.012426 0.581869 -0.341341 -1.048839 -0.114545 -0.140025 -0.355594 0.047494 0.910479 0.434452 -0.547722 0.135321 -0.141269 0.677523 0.665911 1.064609 0.188668 -0.711444 -0.002052 0.252326 -0.140134 0.105084 0.411162 0.045676 0.831558 0.117298 -0.308344 -0.183998 0.389959 -0.244516 0.069461 -0.015130 -0.716141
109 -0.787384 0.211922 0.428447 -0.295555 0.530378 -0.074293 -0.246876 -0.572569 0.270046 -0.110982 -0.235274 0.110315 0.103196 -0.338412 -0.480220 0.375868 0.186126 0.055839 0.161667 -0.430071 -0.928705 -0.274334 0.095671 -0.194266 -0.090011 0.103447 -0.356938 -0.730563 -0.524083 -0.539398 -0.023362 0.509789 0.565544 -0.203581 -0.189106 -0.234245 0.344245 -0.010502 0.249162 0.303000 0.675015 0.453582 0.026232 -0.044720 -0.448339 -0.152892 -0.413453 0.183955 0.069334 -0.637629
110 -0.887375 -0.429557 0.655913 0.104111 0.541116 -0.240378 0.102654 -0.621060 0.239891 -0.782723 -0.050673 -0.575047 0.304365 0.029506 -0.351198 0.638946 -0.026415 -0.314994 0.466070 -0.073501 -0.582389 -0.190976 0.285560 -0.079859 -0.214225 0.149502 -0.302154 -0.573126 -0.325603 -0.251404 0.282585 0.331690 0.776691 0.127297 -0.037277 -0.137580 -0.137671 -0.413657 0.241168 0.462229 -0.099644 0.433925 0.170012 0.021039 0.105466 0.215138 -0.572133 0.297243 0.494603 -0.350487
111 -0.370245 0.637723 0.154585 -0.154173 0.599652 0.059297 0.236887 0.196877 0.633508 -0.195361 -0.145433 0.020254 0.256888 0.520345 -0.074100 0.417105 0.315041 0.192261 0.548064 -0.405741 -0.851418 0.030663 -0.117494 -0.535827 -0.402406 0.421329 -0.188020 -0.481659 -0.142453 -0.113173 0.016273 0.591162 0.336182 -0.130471 -0.656604 -0.321425 0.985805 -0.272380 0.413563 0.504034 -0.207847 0.111324 0.209424 -0.174744 -0.296064 -0.123613 -0.431637 0.220334 0.031020 -0.154328
112 -0.138980 0.156589 0.521822 0.314359 0.312574 -0.330681 0.198796 -0.302953 0.195204 -0.511310 0.007036 -0.135243 0.094337 0.347320 -0.545284 0.434354 0.034007 -0.222752 0.175932 -0.255912 -0.322573 0.087401 0.017234 0.235542 -0.292659 0.628312 0.561476 -0.322898 -0.348502 0.014157 0.387132 0.366585 0.423426 0.262519 -0.563234 -0.292785 0.549125 0.025525 -0.425054 0.587799 0.064773 -0.050917 0.313887 -0.010716 -0.145291 0.190935 -0.387093 -0.381772 0.029765 -0.273650
113 -0.089542 -0.017094 -0.193283 0.453086 0.165295 -0.030773 0.223658 0.095040 0.309495 -0.136096 0.094043 -0.225732 0.126444 0.391768 -0.176435 0.703337 -0.176730 0.494138 0.449486 -0.686711 -0.387148 -0.344283 0.031121 -0.311503 -0.126981 0.887208 0.310592 -0.812423 -0.264200 0.055753 0.323507 0.400487 0.473625 0.120269 -0.763915 -0.709081 0.128735 0.573531 -0.037085 0.442695 0.398669 0.151454 -0.075901 -0.067652 -0.011118 0.250802 -0.409197 -0.246072 0.276712 -0.395790
114 -0.521501 -0.159719 0.026024 -0.155212 0.419192 -0.224539 -0.219824 -0.133721 0.377092 -0.269942 0.002007 -0.188047 -0.085811 0.094484 -0.582129 0.503764 -0.421497 0.132610 0.479531 -1.020870 -0.300331 0.223183 -0.039601 -0.621334 -0.323452 0.414328 0.318104 -0.401199 -0.008484 -0.483527 0.106702 0.288192 0.037665 0.335727 -0.364972 -0.049661 0.014510 -0.199016 -0.002250 0.536733 0.399233 -0.150999 -0.577769 -0.235060 -0.029312 0.537357 0.238275 0.075426 -0.021517 -0.444402
115 -0.495568 0.189322 0.603445 0.376110 0.932772 0.494392 0.163000 -0.190511 0.081925 -0.059234 0.134811 0.171690 -0.486502 -0.050363 -0.407378 0.780384 0.043271 -0.241758 0.277528 -0.600042 -1.181026 0.068733 -0.334738 0.099122 -0.144414 0.333442 0.376040 -0.496636 0.082210 0.142419 0.458599 0.503962 0.855020 0.478047 -0.228895 0.296132 -0.433613 -0.240646 0.009938 0.635833 0.279277 0.004150 0.089981 -0.011011 -0.388283 -0.329783 -0.743406 0.521850 0.563876 -1.074775
116 -0.391389 0.269001 0.342361 -0.242132 0.126470 -0.316400 -0.183032 -0.411302 -0.265481 -0.083911 -0.109612 0.477327 -0.103378 -0.567825 -0.001168 0.224453 0.057448 0.371457 0.239497 -0.239178 -0.043567 -0.097393 0.327116 -0.163828 -0.232722 0.306114 0.048830 0.174340 0.197239 0.077141 0.171680 0.334896 0.103944 0.041421 -0.402744 0.361619 0.084951 0.191829 0.191507 0.360969 0.167254 0.330819 -0.098507 0.413536 0.733746 -0.232369 -0.706052 0.142798 0.153011 -0.007126
117 -0.409083 0.473202 -0.087115 -0.202048 0.886414 0.203981 -0.472145 -0.726443 0.017645 -0.402195 -0.436788 -0.838481 -0.241484 0.141456 -0.184036 0.074180 -0.354456 -0.359953 0.030218 -0.184221 -1.015476 -0.263695 -0.168450 0.056734 -0.458466 0.515990 0.231837 -0.622052 -0.818484 -0.354869 -0.381131 0.634832 1.034625 0.285129 -0.614368 -0.286681 -0.268914 -0.358002 0.079001 0.890868 0.231616 0.241624 0.455908 -0.169781 0.080994 -0.475489 -0.955542 0.267979 -0.008128 -0.525438
118 -0.888066 0.419506 0.404038 0.154537 0.880064 0.532343 -0.313086 0.327843 0.158728 -0.157971 -0.441243 -0.123765 0.837949 -0.271653 -0.139260 0.723785 -0.105428 -0.169137 0.233739 -0.117590 -0.829632 -0.224724 0.010490 -0.470803 -0.423174 1.045945 -0.076105 -0.623568 -0.179860 -0.959485 0.065190 0.981197 0.331185 0.281838 -0.785375 -0.093544 0.551124 -0.055749 0.017374 0.824795 0.768262 0.625468 -0.101287 0.078509 0.049043 -0.012488 -0.621822 -0.165877 0.148972 -0.773111
119 -0.535019 0.211022 -0.272482 0.467379 0.942209 0.346495 -0.216222 -0.414483 0.042852 -0.540192 0.408801 0.848292 -0.551848 -0.361743 -0.683408 1.357875 -0.026639 -0.310777 0.142229 -0.228379 -1.637951 -0.123944 -0.171330 -0.424208 0.031608 0.179589 0.774270 -0.873009 -0.103545 -0.258533 0.789930 0.734917 0.578418 0.349924 -0.383492 -0.145556 -0.142999 -0.386397 0.092568 0.330383 0.141197 0.461035 0.283335 0.104307 -0.133259 0.075370 -0.050040 0.473080 0.226206 -0.708445
120 -0.335158 0.299018 -0.157361 0.038917 0.260033 -0.437149 0.432948 -0.686474 0.089488 -0.432464 0.521103 0.336879 0.112204 0.093224 -0.123031 0.560995 -0.382549 0.407923 -0.127854 -0.370159 -0.892179 -0.100193 0.234273 -0.362257 0.121301 0.478808 0.119764 0.041873 -0.237549 -0.248204 0.565662 0.408173 0.170845 0.455977 -0.284299 -0.161725 0.438432 -0.223517 0.161480 0.579749 0.376659 0.525281 0.304468 0.343490 0.109010 -0.615374 -0.334005 -0.031262 0.129145 -0.316799
121 -0.419107 0.399522 0.201876 -0.399766 0.898497 0.020709 -0.456078 -0.401713 -0.498260 -0.273036 -0.458409 -0.240236 -0.021475 -0.599283 -0.306555 0.855349 -0.797202 -0.258484 -0.434361 -0.485580 -1.108178 0.315430 -0.152685 -0.393194 -0.030883 0.967447 0.104134 -0.733121 -0.152482 -0.845624 0.486969 0.201234 0.517025 0.577415 -1.040256 0.286117 0.724895 0.051755 -0.074957 0.035396 0.711617 0.358845 0.249966 -0.331065 0.116883 0.141633 -1.177920 0.475388 0.101385 -0.536455
122 -0.980782 0.377721 0.265258 -0.085813 1.412951 -0.324747 -0.348728 -0.161652 -0.040671 -0.597563 -0.382784 0.317410 0.228980 -0.251072 -0.131073 0.433089 -0.102041 -0.096231 0.352147 -0.470341 -1.220599 -0.077138 -0.332211 -0.128243 -0.237467 0.637189 0.408272 -0.188181 -0.530937 -0.597099 -0.273301 0.314809 0.980135 0.562126 -0.883773 0.012093 -0.216434 -0.337939 0.099912 0.341188 0.432755 0.140488 0.945808 -0.036529 -0.364078 0.007474 -0.622128 0.503246 0.723929 -0.679739
123 -0.796490 -0.240836 -0.107044 -0.095076 0.887369 0.259461 -0.189530 -0.112143 -0.396570 0.191920 -0.026279 -0.172675 -0.058696 0.383543 0.016797 0.646595 0.147012 -0.358442 0.395647 -0.878803 -1.921483 0.196603 -0.207169 -0.190029 0.343089 0.542307 -0.115880 -0.262795 -0.179020 -0.236325 0.314284 0.110117 0.884459 -0.286105 -0.922075 -0.529071 0.917349 -0.531035 -0.002767 0.470612 -0.039303 -0.053753 0.161725 -0.205972 -0.185110 0.224523 -0.331523 0.508229 -0.405692 -0.540134
124 -0.781856 0.474606 0.582751 -0.218172 0.503151 0.123670 -0.221290 0.315165 -0.526977 -0.476224 0.027365 -0.587187 0.181589 0.554966 -0.018106 0.188765 -0.399442 0.281572 -0.285348 -0.797834 -0.372646 -0.540398 -0.189385 -0.390958 -0.422886 0.479083 0.289092 -0.968531 -0.041697 -0.325097 1.156623 0.038517 1.017593 0.482598 -0.153261 -0.524870 0.298849 -0.606567 0.160361 0.424411 -0.370430 0.696366 0.473522 -0.399981 -0.444541 -0.054138 -0.856545 0.695417 0.294220 -0.422086
125 -0.049551 0.138164 0.294858 0.171414 0.922127 0.226108 0.461860 -0.378412 0.155379 -0.093576 -0.736313 0.212518 -0.410284 -0.413734 -0.262667 0.043056 -0.399957 0.064290 0.532409 -0.567113 -1.293033 0.592305 0.038561 -0.203885 0.125347 0.348539 -0.338728 -0.417049 0.616604 0.194095 0.003215 0.854444 0.352823 0.112842 -0.553328 -0.282445 0.380477 -0.361504 0.187351 0.618349 0.102809 -0.057555 0.132754 -0.123602 -0.528907 0.161753 -1.180120 0.019494 -0.191971 -0.750453
126 -0.313521 0.635044 0.670269 0.300338 0.709394 0.245922 0.134612 -0.436423 0.533958 -0.409914 -0.502313 -0.438700 1.001544 0.081373 -0.435660 0.376883 -0.137759 -0.260597 -0.047091 -0.209289 -0.974865 0.126113 0.134248 -0.289823 0.013064 0.417629 0.783441 -0.150308 0.152448 0.118669 0.315690 0.602148 0.175938 -0.216991 0.039735 -0.649175 -0.025280 -0.298310 -0.168353 0.230639 0.254309 0.361729 0.372684 -0.362300 -0.146892 -0.083787 -0.657498 0.362544 0.022962 -0.401361
127 -1.038187 -0.035327 0.036397 0.021644 0.284647 -0.163145 0.224323 -0.478938 0.157745 -0.171350 -0.073906 -0.495863 0.009451 0.251816 -0.380283 0.057969 -0.078635 -0.249917 -0.137520 -0.215707 -1.053146 -0.069724 0.203714 -0.388448 -0.174959 0.589769 -0.431981 -0.322448 -0.111260 0.359666 0.251719 0.273140 0.652104 -0.405644 -0.370329 -0.010814 0.843725 -0.343448 0.409036 0.575079 0.182544 0.119308 0.159683 0.078473 -0.078860 0.417324 -0.270553 0.101228 0.402520 -0.199084
128 -1.166889 0.156992 0.359711 0.382134 0.488510 -0.131209 0.134410 -0.716985 -0.465238 -0.348494 0.326189 -0.378030 0.678162 0.130787 -0.005503 0.813826 -0.078614 -0.486685 0.171049 -0.094460 -1.435055 0.048444 -0.245137 -0.265518 -0.553994 0.999795 -0.053433 -0.345584 -0.012273 -0.051043 0.746210 0.293808 0.668610 0.158192 -0.645859 0.458535 -0.455883 -0.043999 0.280539 0.070236 0.416080 -0.373057 0.336241 0.281504 -0.728352 -0.466356 -0.935330 0.340484 0.090360 -1.286329
129 -0.960732 -0.240963 0.178438 0.124164 0.720994 -0.015929 0.164401 -0.740820 0.099582 -0.055053 -0.147563 -0.129389 0.646869 0.175669 -0.372379 0.832951 -0.501872 -0.321348 0.397645 -0.263972 -0.524893 0.469857 0.154649 -0.559081 0.059652 0.738724 -0.025186 -0.448911 -0.507119 0.018053 0.316114 0.386100 -0.078403 0.423696 -0.566661 0.269840 0.788588 -0.561727 0.236391 0.495543 0.682524 0.146382 0.575245 0.347739 -0.245959 -0.049685 -0.589434 0.028548 -0.230146 -0.197537
130 -0.233505 -0.433805 0.106242 0.264371 0.417689 -0.941622 -0.072690 -0.320797 0.164319 -0.152351 -0.593897 -0.448132 0.125691 0.008997 0.039142 1.008770 0.303225 0.528678 -0.010095 -0.971978 -1.365079 -0.014938 -0.028380 0.313824 -0.272439 0.322624 -0.110969 -0.192458 -0.557854 0.273240 0.394771 0.380508 0.553254 0.928156 -0.215692 -0.400806 0.239777 -0.375476 -0.091139 0.182442 -0.064037 0.448315 0.042708 -0.107012 -0.435883 -0.574134 -0.635243 0.293207 0.129573 0.070111
131 -0.386807 -0.054450 0.047576 -0.227236 0.169417 -0.218750 0.148314 -0.599554 0.814441 -0.650617 0.040978 -0.097001 0.007473 0.304212 -0.196900 0.712504 -0.002568 0.327618 0.220833 -0.709219 -0.253550 0.039262 0.485162 0.063746 -0.008703 0.286804 -0.082275 0.012288 -0.324077 -0.273688 0.055798 0.279170 -0.001230 0.113063 -0.236487 -0.653526 0.308647 0.023060 -0.138325 0.733795 -0.362950 0.146025 0.386383 0.068517 -0.289813 0.230106 -0.699444 -0.005139 0.072343 -0.534882
132 -0.630368 -0.136465 0.334293 0.778922 0.504466 -0.472883 0.310058 -0.307283 0.623307 -0.545609 -0.083165 -0.080404 -0.406955 0.027467 -0.565188 0.915953 0.169252 0.415510 0.556706 -1.016773 -0.751983 0.049426 0.129579 0.391013 0.308155 0.222023 -0.251134 -0.518496 -0.201828 -0.349773 -0.399919 0.098891 0.527113 0.745715 -0.470485 0.116475 0.016998 0.207438 0.150629 1.203986 -0.141912 0.408051 0.835130 0.300522 0.021768 -0.146641 -0.224076 -0.067754 -0.146131 -0.286219
133 -0.770406 -0.091497 0.037331 0.316232 0.719383 -0.197950 0.054802 -0.676908 0.207909 0.040528 -0.013819 0.059972 0.148302 0.129447 -0.154991 0.846266 0.004779 0.294760 0.111122 -0.091751 -0.787917 0.163655 0.028915 -0.219469 -0.307876 0.261551 -0.304748 -0.298915 -0.359692 -0.211352 0.326170 0.246339 0.187698 0.274262 -0.597291 -0.591882 0.283474 -0.688956 0.210937 1.075741 -0.038162 -0.198841 0.303925 0.411416 -0.460876 -0.117252 -0.647499 -0.338620 0.510076 0.000730
134 -0.550868 0.403008 0.130456 0.119663 0.230385 -0.312268 -0.128411 -0.258866 0.089294 -0.050264 -0.252734 0.131639 0.517613 -0.136249 0.065363 0.055208 0.030808 0.408012 0.062012 -0.323460 -0.595686 0.262358 0.250831 -0.174667 0.285008 0.300293 -0.037132 -0.153156 -0.436806 0.355123 0.479535 0.314865 0.298548 0.216229 0.013289 0.089894 0.275555 -0.095556 -0.004788 0.553227 -0.018440 0.336562 0.112368 0.044235 -0.599622 0.155656 -0.683793 0.246405 0.251011 -0.180313
135 -0.012552 0.329224 -0.184974 -0.025140 0.384845 -0.062196 0.322846 -0.323753 0.608235 -0.625999 -0.206981 -0.374247 0.255734 -0.195491 -0.137424 -0.243666 0.028851 -0.251480 0.145493 0.023483 -0.368774 -0.332559 0.183410 -0.102063 0.269064 0.116941 -0.230195 -0.586105 -0.356299 0.022461 0.080394 0.022428 0.371362 0.041609 -0.461114 -0.026576 0.264721 -0.171795 -0.091459 0.285601 -0.211380 -0.514842 0.121235 0.128502 0.271633 -0.101634 -0.320526 -0.045136 0.051208 -0.231020
136 -0.165092 -0.421023 -0.223448 -0.159272 -0.184408 0.139101 -0.160215 -0.194349 0.115062 -0.144831 -0.151499 0.038647 0.282574 0.218663 0.138571 0.293989 0.137130 0.081963 0.149566 -0.182858 -0.564124 -0.140781 -0.161211 -0.021838 0.026217 0.206983 0.265431 -0.545012 0.094480 0.087410 -0.037117 0.314048 -0.066165 0.396614 -0.370438 -0.332258 0.087967 0.003997 -0.265945 -0.086710 -0.318741 0.395012 -0.063590 -0.086952 -0.266030 0.380016 -0.303226 0.698584 0.352542 -0.450553
137 -0.190011 -0.157857 0.057858 0.021283 -0.274248 0.193860 0.168226 -0.266727 -0.144799 -0.047157 0.099035 0.555264 0.082592 0.070853 -0.412058 -0.075438 0.320673 -0.277891 0.364562 -0.389796 -0.466247 0.263277 0.007965 -0.287226 -0.100044 0.475000 0.261860 -0.167712 -0.157062 -0.065749 -0.026447 0.291160 -0.075442 0.233718 -0.223397 0.100368 -0.086684 0.090995 -0.192222 -0.015436 -0.176112 -0.038074 0.023507 0.069609 -0.319449 0.345559 -0.408613 0.120129 0.103404 0.039809
138 -0.058936 0.351665 0.182520 0.157692 0.575292 -0.293888 0.012524 -0.494341 0.032798 -0.607422 -0.485371 -0.184089 -0.000525 0.070795 -0.361470 0.573415 0.217047 -0.330228 0.006366 -0.136688 -0.465582 0.016574 0.072230 0.036676 -0.019147 0.771364 -0.107215 -0.422769 -0.712851 -0.218245 0.404743 0.961779 0.188317 -0.056006 -0.631460 -0.208763 0.413656 -0.337544 -0.428610 0.235211 0.084915 0.414364 0.453663 0.108325 -0.307401 0.110793 -0.400161 0.472910 0.593529 -1.368498
139 -0.053771 0.311457 -0.128119 -0.058113 0.362259 -0.185197 0.148189 -0.274454 0.110478 -0.459392 0.223786 0.274117 0.125297 -0.445939 -0.408126 0.214864 0.393186 -0.081420 0.115713 -0.285573 -0.886109 -0.552001 0.548066 -0.657853 -0.088665 0.587751 0.242077 -0.284773 -0.413690 -0.304690 0.315948 -0.080262 0.449147 0.046298 -0.285947 0.354195 0.278720 -0.128420 -0.192407 -0.005119 0.060508 0.575188 -0.252109 -0.196619 -0.164364 0.113686 -0.339719 -0.060174 0.542087 -0.089351
140 -0.924259 0.685211 -0.010126 -0.124679 1.267888 0.114929 0.041074 -0.152715 -0.000057 -0.519410 -0.753875 -0.553640 0.188700 -0.126923 -0.109078 0.125491 -0.270822 0.118312 0.673984 -0.312833 -1.203944 0.410849 -0.353519 -0.357551 -0.224835 0.964908 -0.077124 -1.100503 0.375457 -0.496934 0.102541 -0.087592 0.361188 -0.142382 -0.731366 0.126440 0.442672 0.086557 0.521247 0.515337 0.403720 0.112094 0.299364 -0.120385 0.100111 0.053362 -0.585995 0.049946 0.183299 -0.605685
141 -1.112115 0.040520 0.317266 0.255433 0.803764 -0.161470 0.025627 -0.759861 0.510247 -0.346283 -0.425644 -0.091401 0.120442 0.360033 -0.277339 0.537452 0.007527 0.156215 0.512784 -0.371659 -0.863928 -0.003774 -0.010522 -0.188494 0.186254 0.324791 0.085477 -0.714478 -0.321251 -0.385291 0.137907 0.362329 -0.039757 -0.256062 -0.690773 -0.639298 -0.288816 -0.327063 0.185452 0.406890 0.123224 0.216130 0.263265 0.100447 0.351645 -0.124001 -0.097939 0.070826 0.154234 -0.260850
142 -0.502003 0.112390 0.703640 0.206536 0.035189 -0.321533 0.259660 -0.315007 0.403897 -0.316825 0.114379 0.124377 0.776447 0.346415 -0.607398 0.679949 0.039693 0.094212 0.471809 -0.553648 -0.349762 -0.269976 -0.367182 -0.313632 0.053977 0.403447 -0.080637 -0.287388 -0.519395 0.325250 0.286143 0.183539 0.259598 -0.453620 -0.641238 -0.708618 0.174201 0.233593 -0.076865 0.583608 0.372989 0.009561 0.191085 0.004321 -0.429539 0.658199 -0.517274 -0.352389 0.215788 -0.451846
143 -0.508319 0.543157 0.738762 -0.162996 0.652545 0.328350 -0.186196 -0.537919 0.274891 -0.894777 0.079555 -0.845890 0.155078 0.510931 -0.288411 0.740842 0.045862 -0.227401 0.815093 0.053521 -1.056310 0.273921 0.106604 -0.461216 0.339073 0.843588 0.134075 -0.645503 -0.250223 -0.421442 0.364576 0.614185 0.561951 0.084261 -0.686031 0.261316 -0.030125 -0.552031 0.258700 0.649005 0.020384 0.574724 0.285360 -0.331240 0.107097 -0.382603 -0.393855 0.047198 -0.286275 -0.658212
144 -0.257220 0.373352 0.676377 -0.126053 0.601648 -0.460208 -0.053656 -0.403241 0.563125 -0.079278 -0.680454 -0.223359 -0.058892 -0.230449 -0.338250 0.529962 -0.306606 -0.091212 0.318174 -0.695915 -0.637280 -0.123368 0.173647 -0.531081 0.532289 0.195941 -0.222435 -0.566485 0.165029 0.095291 0.248295 0.935372 0.318253 0.339081 -0.778392 -0.236315 0.003116 -0.094381 0.236128 0.026717 0.335223 0.346321 0.194427 -0.402895 -0.135171 -0.244300 -0.663246 0.448799 0.334642 -0.993787
145 -1.020531 -0.047727 -0.367106 0.207448 1.010260 0.320237 -0.177013 -0.315066 -0.447864 -0.753783 0.483174 -0.341888 0.412394 0.649028 -0.779257 0.756813 -0.091616 -0.455823 0.928987 -0.049357 -1.773727 0.109381 -0.142494 -0.227019 -0.341591 0.721506 -0.351581 -0.744316 -0.047436 -0.176847 0.464116 0.411316 0.481238 0.284767 -1.178268 0.276039 -0.293507 0.566443 -0.786153 0.557813 0.336624 0.000132 0.122582 0.037486 -0.155142 -0.561328 -0.444433 0.688226 -0.351133 -0.783530
146 -0.546830 0.116736 0.197457 -0.157210 0.252036 -0.114729 -0.182840 -0.279934 0.374995 -0.320360 -0.402630 -0.475034 0.107375 -0.069804 -0.082933 0.973448 -0.350428 0.022928 0.602225 -0.377894 -1.258357 -0.154416 -0.421759 -0.026103 -0.061443 0.727681 0.231950 -0.139714 -0.357160 -0.155820 0.608697 0.105845 0.831155 0.222075 -1.233477 0.243589 0.239051 0.027097 -0.158717 0.218301 -0.091573 0.256718 0.354329 -0.183076 -0.307878 -0.283137 -0.445697 0.134590 0.157840 -0.332633
147 -0.925755 -0.352154 0.405478 0.159815 1.199080 -0.240497 -0.030106 -0.539312 -0.135204 -0.233545 -0.076555 -0.101030 -0.411173 0.013070 -0.094946 0.620545 -0.723644 -0.109249 0.608641 -0.333100 -1.458116 0.459571 -0.099152 0.082821 0.080336 0.300998 -0.372138 -0.425223 -0.313170 -0.006714 0.491401 0.203205 0.914021 0.007209 -0.996511 0.123193 0.411383 -0.324355 0.088540 0.309684 -0.180037 0.048802 0.359283 -0.134955 -0.076852 -0.217243 -0.658110 0.891339 -0.151790 -0.447411
148 -1.032067 0.133671 0.005105 -0.188173 0.437787 -0.149612 -0.009198 -0.398186 -0.126552 -0.036938 0.167004 -0.256765 -0.509100 0.391005 -0.957953 0.500671 -0.275485 -0.033965 0.095465 0.148457 -0.597873 -0.210333 0.322338 -0.257038 -0.903827 0.957587 0.218424 -1.155727 -0.011605 -0.004831 0.614316 0.552629 0.370450 -0.565788 -0.614541 -0.082929 -0.042391 0.083653 0.625064 0.155224 0.653745 -0.318788 0.553365 0.635338 -0.525971 -0.221561 -0.372688 -0.038593 0.568843 -0.492048
149 -0.503487 0.465504 1.056019 -0.362794 0.754347 -0.197711 -0.317180 -0.429829 0.315011 -0.753300 -0.103206 -0.265980 0.365907 -0.084039 -0.333804 0.013543 -0.104982 0.060263 0.352500 -0.268132 -0.858505 -0.038033 -0.550001 -0.001512 0.166564 0.627912 0.098533 0.115518 -0.284676 -0.289531 -0.265559 0.282828 0.381806 0.685264 -0.704788 -0.416483 0.162316 -0.433713 0.147234 0.668499 -0.230737 0.241516 -0.162550 -0.023977 -0.470163 -0.299749 -0.600474 -0.200996 0.015686 -0.661800
150 -0.667112 0.198764 0.370703 0.018074 0.370815 -0.796626 0.013677 -0.170284 0.341816 0.418717 -0.475998 -0.675579 0.089306 0.116613 -1.132168 0.882327 0.094440 0.002038 0.310878 -0.905543 -0.818540 0.250960 -0.243948 -0.402274 0.115302 0.285114 0.039125 -0.265927 -0.066581 -0.223521 0.569697 0.021414 0.438834 0.567651 -0.399470 -0.275078 0.510078 0.401859 -0.461944 0.126623 0.431178 0.348780 0.255125 0.639123 0.424432 -0.072016 -0.709782 0.153309 0.317937 -0.570424
151 -0.122211 0.254604 -0.256853 0.327563 0.701936 0.149794 0.306649 -0.378425 0.709257 -0.678464 -0.667599 -0.221420 0.422457 -0.006039 0.174081 0.883751 -0.203472 0.051262 0.879589 -0.209057 -0.718651 0.143133 0.278219 -0.152399 0.126412 0.792933 -0.121760 -0.726241 0.301045 0.199048 0.138971 0.973521 0.982344 0.542682 -0.319391 -0.631196 0.189344 -0.104899 0.031400 0.341173 -0.379218 0.124935 0.288245 0.509858 -0.442239 -0.091810 -0.562969 0.569472 0.389720 -0.805172
152 -0.489947 0.021826 0.456993 0.230699 1.088153 -0.539302 -0.225104 -0.060121 0.589869 -0.874069 -0.462103 -0.340212 0.443952 -0.137946 -0.006056 0.611310 -0.502297 0.080425 0.721437 -0.453067 -0.399548 0.158907 0.091931 -0.197702 0.217345 0.327865 -0.030827 -0.627810 -0.121378 0.148734 0.230927 0.755503 0.381354 0.295301 -0.754725 -0.567466 0.092445 -0.382617 0.292722 0.329873 -0.030741 0.190033 0.413261 0.002274 -0.296728 0.247523 -0.580803 -0.209640 0.552300 -0.441379
153 -0.283361 -0.174920 0.269317 -0.010856 0.465486 -0.230292 -0.168993 -0.648660 0.128680 -0.074492 -0.231634 -0.602511 0.255102 -0.232593 -0.508536 0.729911 0.200790 0.455404 -0.112936 -0.772366 -0.697341 0.142989 0.424373 -0.423431 -0.523340 0.814424 0.244344 -0.772328 0.255360 0.174081 0.020479 0.521089 0.787199 0.055922 -0.661148 -0.441690 -0.522435 -0.216852 -0.286613 0.085499 0.103411 -0.104564 0.106688 -0.036879 0.008768 -0.099018 0.049261 -0.013630 -0.081766 -0.555800
154 -0.814640 0.128678 -0.116755 0.317595 0.149797 -0.474103 -0.227772 -0.653045 -0.799787 -0.461191 -0.228132 -0.230230 0.273970 -0.320444 -0.679108 0.409509 -0.320234 0.008455 -0.525257 -0.425796 -0.743317 0.399618 0.474464 -0.282314 -0.604729 0.573290 0.221856 -0.519874 -0.163111 0.063515 0.543627 1.094333 0.261568 0.623325 -0.316112 0.101953 0.480298 0.051812 0.350285 0.152882 0.004296 0.060898 0.312932 -0.247346 0.093448 -0.051643 -1.012289 -0.051199 0.066271 -0.263525
155 -1.016687 0.530189 -0.000953 -0.230185 0.565510 0.102715 -0.266337 -0.689005 0.191207 -0.269272 0.238026 0.679915 0.879475 0.039033 -0.447629 0.598019 -0.077091 -0.157253 0.791502 -0.768997 -1.045180 -0.235564 -0.038033 0.034219 -0.561298 0.830820 0.247236 -0.840302 0.138864 -0.286465 0.442141 0.934998 0.687034 0.476234 -0.914186 0.053829 0.342697 0.055320 0.134677 0.564190 1.010502 0.423484 -0.345606 0.194675 0.039407 0.067562 -0.760105 0.090794 0.623577 -0.203432
156 -0.188861 0.144191 0.118772 -0.043043 0.463988 0.364417 -0.113357 0.254080 0.449823 -0.125393 -0.250079 0.138637 0.333012 0.400651 -0.425740 -0.228178 -0.408565 0.262674 -0.074963 -0.636257 -0.777873 -0.167350 -0.062167 -0.157447 0.016205 0.208519 -0.159550 -0.351712 0.164601 0.183413 0.631866 0.018067 0.299512 0.159184 -0.279130 -0.340562 -0.284480 -0.371632 -0.280444 0.419035 0.180208 0.720966 0.046120 -0.028201 -0.260945 0.012681 -0.645503 0.259504 0.016461 -0.176819
157 -0.396701 -0.015034 0.084096 -0.149360 0.294723 -0.265630 -0.109699 -0.117395 0.389991 -0.237663 -0.009126 -0.191084 0.058316 -0.097423 0.006008 0.461124 -0.041735 0.090771 -0.284334 -0.555133 -0.321958 -0.107805 -0.035802 -0.438835 -0.195165 0.765509 0.007871 -0.530721 -0.430555 -0.091398 -0.332214 -0.234245 0.176017 -0.141876 -0.253958 -0.206110 0.292151 0.027955 0.234213 0.138428 0.301698 0.420541 0.017451 -0.064094 -0.358880 -0.285123 0.102101 0.160546 0.321716 0.002114
158 -0.527831 -0.060123 0.525491 -0.604644 0.935930 0.013824 0.139146 -0.593058 0.444681 -0.025598 0.311242 -0.536844 0.764165 0.163423 -0.198607 0.468381 -0.123867 -0.291923 0.074262 -0.713417 -0.855647 0.784531 -0.346954 -0.422823 -0.704038 0.259402 -0.102449 0.057203 0.439384 0.379304 0.195892 0.347540 0.261245 0.182000 -0.419329 0.263427 0.363110 0.522947 -0.440809 0.206230 0.248953 -0.103896 0.202961 -0.564293 -0.774167 0.230496 -1.055346 -0.106292 0.351616 -0.808086
159 -0.498469 0.295708 0.267958 0.247969 0.868851 0.017222 0.374009 -0.379537 0.041569 -0.237668 -0.097178 0.102837 0.384128 0.042905 -1.005473 0.237108 0.096141 -0.023755 -0.010384 -0.835389 -0.930922 0.035627 -0.543831 -0.557945 0.276496 0.542926 -0.652093 -0.260578 -0.360008 -0.461503 0.208416 0.297630 -0.012610 -0.069440 -0.240044 -0.378362 0.342225 -0.138869 0.309733 0.478785 -0.080373 0.410734 0.273144 0.144142 0.009728 0.058279 -0.465342 0.628900 -0.027059 -0.957501
160 -0.391907 0.256019 0.608652 0.030338 0.477483 0.238987 -0.045739 -0.345007 0.159862 -0.279798 0.180596 0.135761 0.319498 0.242337 -0.317468 0.542766 -0.059510 -0.195627 0.289568 -0.429762 -0.784721 0.193097 -0.200168 -0.268120 0.109969 0.559155 -0.220148 -0.598726 -0.214320 0.157380 0.129104 0.750201 0.069651 -0.495862 -0.881025 -0.669215 0.196779 0.058965 0.547114 0.345510 0.221983 0.183567 0.196743 0.037619 -0.104581 0.301060 -0.306138 0.210935 0.239705 -0.530208
161 -0.761352 0.689248 0.362851 -0.026849 0.535022 -0.489282 0.182800 -0.192919 -0.068816 0.063435 -0.221869 -0.101862 -0.377658 0.263648 -0.199462 -0.117546 -0.095927 0.723809 0.087750 -1.085429 -0.585270 -0.135518 0.337795 -0.605758 0.017592 0.537003 -0.083328 -0.833521 -0.292132 -0.490859 0.477921 0.469411 0.183208 0.082831 -0.017884 -0.280203 -0.005299 -0.146806 0.508487 0.011698 0.424591 0.136176 0.575309 0.411607 -0.566957 -0.369306 -1.278725 0.507767 0.325591 -0.258041
162 -0.327315 0.092863 0.338196 0.292256 0.424564 -0.418790 -0.492005 -0.423547 0.176582 -0.373494 -0.031326 -0.105874 0.190900 0.539473 -0.242124 0.347242 -0.618480 0.160345 0.232661 -0.496209 -0.337020 -0.153309 0.344211 0.071607 -0.389940 0.339874 -0.078309 -0.103505 0.024508 -0.135067 0.039843 -0.108868 0.430702 0.390778 -0.033057 -0.292838 0.024560 0.320826 -0.072327 0.050555 -0.029051 0.067913 0.054479 -0.242993 -0.125243 0.139904 -0.315381 0.499078 0.400561 -0.320577
163 -0.343879 -0.055252 0.611463 -0.072296 0.442788 0.125031 0.279241 -0.417203 0.456809 -0.194754 -0.348533 -0.492745 0.140608 0.141766 -0.296912 -0.286513 -0.405880 -0.163095 0.160406 -0.656501 -0.609391 -0.015258 0.353007 -0.213744 -0.190382 0.524470 0.030075 -0.429960 -0.733280 0.206416 0.381389 0.164686 0.704038 0.208449 -0.414770 -0.350001 0.209438 0.384176 0.300128 0.417164 0.015049 0.098145 0.368687 -0.194839 -0.065139 -0.058308 -0.283018 -0.296802 -0.008001 -0.342361
164 -0.822382 0.017662 0.358328 -0.259772 0.111997 -0.215839 -0.362573 -0.812561 -0.081384 -0.272200 0.193706 -0.038737 -0.633495 0.207665 -0.402708 0.372135 -0.254355 -0.431905 -0.200152 -0.628023 -0.108738 0.089381 -0.166617 -0.132408 0.167158 0.455964 0.240564 -0.490741 -0.081097 -0.289686 -0.082349 0.242929 0.539375 -0.141269 -0.231444 -0.429797 0.162645 -0.117222 0.069096 0.203329 -0.235506 0.175409 -0.195728 0.068741 -0.517823 0.127345 -0.193710 0.036403 0.342354 -0.464951
165 -0.179630 -0.470869 -0.007528 -0.599564 0.692595 -0.638961 0.212252 -0.342837 0.438032 -0.127054 -0.265408 0.448836 -0.006872 0.308794 -0.520032 0.384902 0.210814 -0.109904 0.577454 -0.602101 -0.542870 0.086795 0.315900 -0.075383 -0.384559 0.545295 0.109975 -1.230983 0.167411 -0.376105 0.080787 0.497039 0.136706 0.624654 -0.195931 -0.390127 0.309082 -0.076150 0.236557 1.309098 0.273401 0.365194 -0.041901 0.633497 -0.622414 0.087962 -0.665796 0.571450 -0.161058 0.049054
166 -0.312746 -0.006558 0.423880 0.067262 0.123615 0.292142 -0.186398 -0.643157 -0.067482 -0.614874 -0.004255 0.107367 -0.176031 0.131573 -0.443353 0.411213 -0.429862 -0.194542 0.213495 -0.528980 -0.561878 0.187936 -0.317022 0.050032 -0.349175 0.227937 -0.372127 -0.612005 -0.387252 0.273039 0.230906 0.514993 0.044631 -0.186595 -0.470479 -0.240126 0.157297 0.156187 0.056478 0.571006 0.030274 0.180524 0.149341 -0.014836 -0.156132 0.203347 -0.864015 -0.075793 0.116560 -0.547228
167 -0.387160 0.070957 0.113256 -0.130966 0.091849 -0.075268 -0.419265 -0.266248 0.055875 -0.586237 -0.052024 -0.061835 -0.260382 -0.219489 0.004137 0.490481 -0.078773 0.146684 0.566326 -0.641051 -0.842478 0.064397 0.018020 -0.357754 -0.332867 0.429410 0.142088 -0.113207 -0.607581 0.267530 0.218944 0.544872 0.548497 0.165945 -0.715795 -0.366081 -0.212575 -0.131833 0.070308 -0.144251 0.020085 -0.085278 0.018177 -0.019276 -0.253588 -0.052352 -0.351678 0.161294 0.209924 -0.244226
168 -0.254247 0.710470 0.472222 0.165680 0.477395 0.034113 -0.143653 -0.482419 0.055606 -0.204858 -0.768607 -0.548937 0.448396 0.179260 -0.209347 0.991111 -0.181634 -0.191910 0.489859 -0.377584 -1.130245 0.421398 0.016929 -0.420548 0.255400 0.212684 0.043185 -0.518812 -0.265323 -0.351194 0.360540 0.413097 0.383597 0.711350 -0.591543 -0.331915 0.092716 0.342411 -0.212065 0.539483 0.212320 0.185454 0.599968 -0.012087 -0.103305 -0.043830 -0.227477 -0.131949 0.755848 -0.804480
169 -0.227666 -0.237581 0.585903 -0.246036 -0.115830 -0.015519 -0.119158 -0.035844 0.146643 -0.226403 -0.076041 0.134385 -0.124116 0.047788 -0.674550 0.207021 -0.017138 -0.469924 0.238478 -0.414663 -0.895598 0.166707 -0.047563 -0.222914 0.216893 0.748016 -0.242354 -0.610814 0.154827 0.030575 -0.011408 -0.124237 0.279537 0.380623 -0.655567 -0.138485 0.250061 -0.010420 -0.025959 -0.182824 -0.239064 -0.053250 -0.343093 0.125382 0.332829 0.333820 -0.326472 -0.142076 0.075402 -0.472911
170 -1.024945 0.572170 0.524722 -0.419778 0.566793 -0.009947 -0.030983 -0.428929 0.357991 -0.816124 -0.252228 0.099969 0.311499 -0.237048 -0.251920 0.472027 -0.902028 -0.039390 0.215594 -0.552636 -0.289682 -0.229632 0.110120 -0.415583 -0.100580 0.627087 -0.218690 -0.331697 -0.455644 -0.135291 0.092299 0.073083 0.444788 -0.465281 -0.034027 -0.441583 -0.072940 -0.035896 0.065727 0.076642 -0.150657 0.152426 -0.174148 0.002904 -0.102625 0.604447 -0.765217 0.096454 0.413736 -0.442848
171 -0.518108 0.587479 0.433958 0.076511 -0.238902 -0.303990 0.544515 -0.485954 0.614814 -0.131785 0.303337 0.115376 -0.068065 -0.185218 -0.543260 0.370931 -0.213326 0.495301 0.219939 -0.953190 -0.567424 0.127304 0.159390 0.044385 0.019013 0.172946 -0.060504 -0.918443 0.009371 0.173873 -0.037329 0.949271 0.578886 0.066811 -0.528274 -0.364185 0.267406 0.097969 -0.008712 0.392440 0.238934 -0.217172 -0.413011 -0.320583 -0.116144 -0.401090 -0.433172 0.512141 0.363109 -0.264536
172 -0.540299 0.205930 0.341225 -0.194312 0.663643 0.091511 -0.088413 0.045024 0.353572 -0.075319 0.063111 0.305960 0.489242 -0.037798 -0.383284 0.550184 0.391115 0.155016 0.565809 -0.491885 -0.727777 -0.120191 0.417892 -0.462333 -0.344883 0.554737 -0.170317 -0.593956 0.172748 -0.309594 0.384579 0.692066 0.053169 0.213091 -0.251286 0.078644 0.335129 -0.028055 -0.250061 0.235786 0.566805 0.259460 -0.049314 -0.197633 -0.485143 -0.101149 -0.478713 0.146953 0.110044 0.013743
173 -0.190825 0.524754 0.214166 0.021773 0.609027 0.223767 0.212927 -0.292620 0.456678 -0.454534 -0.041239 0.301550 0.046084 0.091983 0.063378 0.879723 0.131839 -0.252852 0.554124 -0.362336 -0.889821 -0.041088 0.192974 -0.173181 -0.258361 0.283552 0.051995 -0.695942 0.291366 -0.162094 0.558365 -0.001504 0.048394 0.395349 -0.942528 0.103739 0.748450 0.001887 0.418105 0.918355 -0.228439 0.044254 -0.124969 0.203046 0.447509 0.254740 -0.807878 -0.337234 0.243176 -0.324015
174 -0.175567 0.213830 0.415431 0.050084 0.626894 0.076905 0.149952 -0.771011 0.296134 -0.384545 0.165954 -0.046580 0.119190 -0.137588 -0.260313 0.553103 -0.213161 0.255538 0.072009 -0.294925 -0.809781 0.246747 -0.266912 -0.181070 0.210016 0.549857 0.195068 -0.273156 -0.015290 -0.214317 0.263769 0.610961 0.095432 0.013130 -0.914684 -0.367238 0.477191 -0.260096 -0.198575 0.237916 0.341861 0.307804 0.006531 0.454200 0.002182 0.241533 -0.334767 0.339338 0.260774 -1.086732
175 -0.353980 0.392395 0.132839 -0.138314 0.585920 -0.125353 -0.163363 -0.396831 0.151702 -0.184347 -0.625245 -0.138699 0.621449 0.305858 -0.544498 -0.012712 -0.226709 0.089534 -0.105636 -0.737927 -0.516191 0.123678 0.020469 0.191614 -0.208307 0.124450 0.249207 -0.433395 -0.337330 -0.463339 0.347463 0.307867 0.380095 -0.113864 -0.487241 -0.252577 0.465708 0.017020 0.049778 0.230013 0.181205 0.262251 0.290696 -0.247538 -0.019337 0.223515 -0.345520 -0.108155 0.213103 -0.429836
176 0.005868 -0.213661 0.161277 0.125058 0.706461 -0.324448 -0.072320 0.209775 0.121985 -0.302601 -0.610311 -0.236662 0.405993 -0.625963 0.116023 0.430106 0.080940 -0.332765 -0.029090 -1.107473 -1.500302 0.478272 0.214660 0.079576 -0.353713 0.861826 0.428647 -1.126074 0.098280 -0.462740 0.430157 0.444182 0.418272 0.306536 -0.826478 -0.416512 0.032326 0.207493 -0.084735 1.038793 0.181055 0.042546 0.438259 0.252167 -0.778668 0.090483 0.349541 -0.086153 0.685562 -0.356191
177 -0.566265 0.149551 0.310346 0.292244 0.563416 -0.167328 0.418307 -0.519151 0.269309 -0.246935 0.225499 0.228888 0.466988 -0.068673 -0.058165 0.135063 -0.161868 0.591207 0.290158 -0.528470 -0.518801 0.177329 0.214721 -0.073521 -0.012873 0.311554 -0.119076 -0.607813 -0.581849 -0.385446 -0.211448 0.299356 0.122394 0.106532 -0.411349 -0.189317 0.261626 -0.134928 0.035254 0.207844 -0.408923 -0.222626 -0.245801 -0.261541 -0.129578 0.092395 -0.366587 -0.118253 0.017769 -0.148858
178 -0.500251 0.115228 -0.128394 0.022649 0.449576 -0.007377 0.332321 -0.020285 0.069415 0.109271 -0.368627 0.395171 0.069213 0.111320 -0.181469 0.198179 0.045933 0.060944 0.156182 -0.536732 -0.685868 -0.254909 0.057078 -0.389737 -0.001379 0.603091 0.114828 -0.404952 -0.073043 -0.292729 0.252966 0.362689 0.482898 0.135964 -0.282462 -0.594152 0.422243 -0.354849 -0.337763 0.059751 -0.140802 -0.030010 0.128509 0.088639 0.136553 0.081562 -0.398589 0.117087 0.465232 -0.421359
179 -0.706539 -0.180749 0.390750 0.018332 0.501701 -0.046507 0.037498 -0.639598 -0.176818 -0.750964 -0.074104 -0.139899 0.198804 -0.233161 -0.781848 0.499268 0.526742 -0.105451 -0.192944 -0.750579 -0.702649 -0.068748 0.270954 -0.560837 -0.225799 0.541496 -0.138704 -0.496887 -0.317451 0.455337 0.555993 0.201335 0.441049 -0.331378 -0.567020 -0.307875 0.492940 -0.119667 0.042573 0.236403 0.356705 0.380673 -0.477615 0.349153 -0.717116 0.019501 -0.570400 -0.224775 0.063783 -0.394275
180 -0.231280 -0.627948 0.342384 -0.849298 0.009299 -0.876446 0.041947 -0.804762 -0.399462 -0.302302 -0.553929 -0.501007 0.198479 0.181339 -0.492597 0.236729 0.375600 -0.415087 -0.771143 -0.637159 -0.706068 0.254594 0.785499 -0.487008 -0.315036 0.197441 0.427919 -1.270351 0.147681 -0.627454 0.230266 0.246483 1.430778 0.367242 -0.321327 -0.413211 0.305715 -0.209613 0.180628 1.001148 0.318346 0.087894 0.384984 0.411143 -0.663025 -0.231821 -0.558968 0.229974 0.613831 -0.845047
181 -0.454262 -0.100420 0.244059 -0.452572 0.364110 0.110468 -0.323716 -0.301513 0.320058 -0.326909 0.382188 -0.477607 -0.099535 0.016667 -0.377025 0.732587 -0.092963 0.066023 0.170265 -0.494828 -0.748445 0.212841 0.133806 -0.246292 0.334285 0.829168 -0.157776 -0.539582 -0.103249 -0.146370 0.694281 0.594190 -0.117474 -0.014966 -0.260896 -0.477413 0.425226 0.253735 0.122748 0.596238 0.038617 -0.043173 -0.378664 -0.556425 -0.095936 -0.113493 -0.403959 0.437320 0.082322 -0.294350
182 -0.193103 -0.140561 0.236319 -0.230679 0.123761 -0.370605 -0.474717 -0.619672 -0.331755 -0.492098 0.212218 0.244412 -0.086060 0.202997 -0.279216 0.326439 -0.100104 -0.007314 0.352735 -0.587018 -0.440725 -0.397822 -0.016749 -0.063800 -0.172310 0.262799 -0.079873 -0.566828 -0.188490 0.146205 0.268857 0.094557 0.282552 0.158430 -0.167869 -0.389720 -0.176489 0.027136 -0.011816 0.516110 -0.099793 0.045526 -0.283052 -0.084891 -0.247121 0.251700 -0.550792 0.000154 0.451045 -0.125605
183 -0.729894 -0.052344 -0.018930 0.022735 0.282585 -0.065189 0.053013 0.363900 -0.113177 -0.144673 -0.472512 -0.266543 -0.107122 0.207466 0.364167 0.496675 -0.308573 -0.018857 -0.165525 -0.111728 -0.541671 0.012027 0.032564 -0.207556 -0.199627 0.707098 -0.028859 -0.305090 -0.300547 0.109988 -0.086314 -0.071160 0.240729 0.200269 -0.049701 0.172496 -0.163878 0.162497 -0.059892 0.189148 0.282005 0.135863 0.156536 0.107637 -0.090051 -0.524941 -0.072441 -0.152255 0.145666 -0.180240
184 -0.064387 0.619697 0.220265 0.212030 0.300790 0.435808 -0.207030 -0.722173 0.254669 -0.349090 -0.035978 -0.512386 0.726087 0.001462 -0.166264 0.428719 0.118806 -0.009551 -0.362975 -0.742409 -0.778698 -0.615825 -0.058461 -0.051884 -0.217654 0.351891 0.318630 -0.126906 -0.260819 0.036808 0.341331 0.505623 0.350176 0.562905 -0.807000 -0.188299 0.307742 -0.266892 -0.262472 0.558809 0.029080 -0.102264 0.267073 0.141701 -0.534101 -0.091091 -0.875509 0.003562 0.425592 -0.308383
185 -0.372885 0.001116 0.356891 0.016282 -0.190422 -0.283692 0.037586 -0.601314 0.223826 -0.027080 0.036271 -0.292728 0.142546 0.283926 -0.116106 0.446341 0.020086 -0.108545 0.193834 -0.280527 -0.502775 -0.326211 -0.274544 -0.252192 -0.000789 -0.068738 -0.104246 -0.311769 -0.313359 -0.059175 0.088234 0.087918 0.548506 -0.478278 -0.162780 0.030051 0.217480 0.128024 0.191837 0.343340 -0.514370 0.420983 0.133912 -0.091235 -0.499008 0.312264 -0.197722 0.125947 0.073191 -0.025488
186 -0.528701 -0.084027 0.648248 -0.185885 0.855839 -0.324532 0.488997 -0.542976 0.384464 0.122133 -0.020049 -0.227897 0.438873 -0.149517 -0.466242 0.418823 0.668344 0.212633 0.218593 -0.215679 -1.050080 -0.233534 -0.014292 -0.029249 -0.253422 0.197859 0.075287 -0.442884 -0.227990 -0.284725 0.304289 0.166664 0.506303 -0.164974 -0.131824 -0.385433 0.217430 0.121986 0.197735 0.479226 0.066288 -0.277735 0.038495 0.351039 -0.266178 0.617049 -0.482175 0.156617 0.157355 -0.748139
187 -0.645071 -0.001009 0.083549 0.465560 -0.087540 -0.038623 -0.023390 -0.303308 0.302975 -0.163136 -0.207822 -0.200757 0.050709 0.160675 -0.363070 0.447537 -0.321464 -0.367678 -0.140953 -0.444825 -0.301548 -0.002152 0.031912 -0.097227 -0.054241 0.532670 0.403825 0.086200 -0.013662 -0.329406 -0.074560 -0.031458 0.008743 -0.013735 -0.304222 -0.105891 0.043737 0.164676 -0.029772 -0.259183 0.251039 0.229080 -0.186757 0.314977 -0.362289 0.255890 0.066481 -0.138063 0.265888 -0.214996
188 -0.773451 -0.029698 0.348148 0.395433 -0.000781 -0.237774 0.208553 -0.755657 0.164739 -0.210325 -0.255271 -0.130963 0.220315 0.002163 -0.235383 0.321622 -0.499676 0.441976 0.387638 -0.395600 -0.529744 0.002756 -0.017393 -0.289454 -0.136773 0.095470 -0.337905 -0.147090 -0.218167 -0.386391 0.149354 -0.118652 0.497169 0.254816 -0.507516 0.011921 0.325761 -0.283070 0.136526 0.981366 0.032110 0.158381 -0.243057 -0.088430 -0.314591 -0.097370 -0.465343 0.180812 0.295087 -0.095309
189 -0.599607 -0.039031 0.179034 -0.125228 0.178977 -0.417477 0.590808 -0.461240 0.137412 0.213824 -0.633712 0.008912 0.179308 0.227923 -0.311977 -0.073376 0.782225 0.245627 -0.445712 -1.283891 -0.459132 -0.141712 0.149881 -0.828238 -0.211313 0.857909 0.338127 -0.530453 -0.508367 -0.241044 0.641871 0.142498 0.555023 0.506861 0.589068 -0.011310 -0.076153 -0.349502 0.003814 0.412352 0.377106 0.184808 0.238877 -0.447819 0.316859 -0.860519 -1.053556 0.556503 0.179298 -0.938693
190 -0.676359 -0.010949 0.057898 0.123167 0.297131 -0.332615 0.041800 -0.806440 0.113362 -0.232629 -0.616477 0.027298 -0.351305 0.040438 -0.666804 -0.029577 -0.100160 -0.202385 -0.446491 -0.641217 -0.306067 -0.259380 0.276873 -0.626981 -0.491068 0.493637 -0.034827 -0.449228 0.401390 -0.044115 0.437184 0.462398 0.276142 -0.123947 -0.150377 -0.579625 -0.153738 -0.792226 -0.177429 0.625765 -0.137604 -0.291484 -0.137435 0.017748 -0.477786 0.575288 -0.944147 -0.045871 0.125079 -0.684795
191 -0.271168 0.229462 0.134386 -0.176185 0.357490 -0.062421 0.429236 -0.862525 -0.293233 -0.407054 -0.240971 0.072036 0.380990 0.162978 -0.294812 0.336870 -0.106051 -0.016189 0.425282 -0.571918 -0.637522 0.071816 0.262416 -0.446417 -0.516119 0.557867 0.028830 -0.440255 -0.499967 -0.077608 0.566256 0.449759 0.129165 -0.117077 -0.143035 -0.463950 -0.092930 0.108920 0.019555 0.233553 -0.243614 0.033426 -0.107544 0.196796 0.436385 0.144791 -0.533358 -0.083019 0.299247 -0.170283
192 -0.054449 -0.362469 0.166975 0.148422 0.531616 0.128767 -0.057375 -0.033737 0.117158 0.110853 0.177445 -0.063287 -0.718845 0.060840 -0.073210 0.043800 -0.406226 0.309690 -0.032067 -0.291095 -0.424625 0.149029 -0.208635 -0.656940 -0.533170 0.687538 0.118434 -0.228166 -0.057395 -0.244024 -0.037283 -0.049532 0.109685 -0.045753 0.059018 -0.085374 0.169104 0.194700 -0.197422 0.350425 -0.125964 0.320311 -0.348316 -0.199348 -0.489669 0.074156 -0.221326 0.011656 -0.390368 -0.243772
193 -0.297835 0.516622 -0.074950 0.004464 0.171254 -0.193241 -0.162639 -0.145838 0.297331 -0.368373 0.105191 -0.056714 -0.092350 0.149145 -0.896598 -0.239191 -0.016618 -0.021987 0.146740 -0.214053 -1.372413 -0.384557 0.028003 -0.296405 -0.242159 0.832664 0.052254 -0.809702 0.133120 -0.349387 0.612096 0.820982 0.591815 0.131172 -0.380688 -0.433065 -0.158429 -0.041958 0.125305 0.307235 0.560434 0.216348 0.778893 0.681395 -0.667331 -0.113966 -0.477628 -0.662227 0.661225 -0.429896
194 -1.024104 -0.253261 0.113650 -0.340971 0.659935 0.185025 0.048697 -0.359168 0.630872 -0.293972 0.279076 -0.369063 0.680927 -0.316050 -0.334346 0.915879 0.195247 -0.116389 0.714152 -0.474574 -1.193617 0.381407 -0.174808 -0.251309 0.212399 0.221535 -0.506739 -0.346706 -0.415983 0.048731 0.342075 0.292633 0.487911 -0.168684 -0.833869 -0.197792 0.548642 -0.020029 0.247239 0.415111 -0.181018 -0.164496 0.225910 0.290747 -0.223894 0.306545 -0.929292 0.108187 -0.026911 -1.024090
195 -0.163594 0.107781 0.196004 -0.098536 0.428010 -0.117927 0.256574 -0.167783 0.058629 -0.031110 -0.023220 -0.312243 0.068514 0.213713 0.040693 0.118925 -0.199561 0.257998 0.454817 -0.774051 -0.520791 -0.359807 0.164266 0.304368 -0.236172 -0.037223 -0.177152 -0.487071 -0.240673 -0.195682 0.143432 0.102039 0.410668 0.209406 -0.511297 -0.686004 0.115946 0.048548 0.413662 0.287062 -0.104632 0.352172 0.322593 0.045113 -0.076659 0.115633 0.051388 0.157118 0.315897 0.303091
196 -0.485727 0.356163 -0.229603 -0.103792 0.501120 0.049094 -0.357233 -0.605805 0.207944 -0.548970 -0.722012 -0.449893 -0.164972 -0.022810 -0.186063 0.230423 -0.325619 -0.705768 0.417372 -0.675431 -0.732431 0.326556 0.108121 0.651831 -0.211739 0.617295 0.533043 -0.544344 -0.204226 -0.159214 0.623950 0.342605 0.207880 -0.477900 -0.506992 -0.115105 0.717475 -0.099487 -0.561989 0.923154 -0.205825 0.073337 0.314305 -0.456079 -0.040296 -0.451940 -0.717953 0.126163 0.356910 0.239898
197 -0.604487 0.113062 0.479714 0.343995 0.086863 0.281294 -0.040559 -0.351689 0.148979 -0.316261 0.080616 -0.084450 -0.315782 0.258390 -0.177298 0.126139 -0.241657 -0.157066 0.312076 -0.226913 -0.507477 0.104414 -0.165449 -0.208052 -0.404305 0.689887 0.173242 -0.421105 -0.377018 -0.283221 0.461829 0.382509 0.217835 0.174027 0.252263 -0.374745 0.060907 0.142155 0.053941 0.199554 0.190105 0.010186 -0.034497 -0.402537 -0.553968 -0.002251 -0.517918 -0.177503 -0.343303 -0.266626
198 -0.241978 0.182140 -0.264193 0.369588 0.391364 -0.167686 0.165703 -0.928543 0.214885 -0.264892 0.005035 -0.329918 -0.105318 0.472376 -0.623233 0.759477 0.344650 -0.114803 0.192363 -1.202208 -0.661706 -0.016495 0.592923 -0.260527 -0.590411 0.441598 0.475165 0.090642 -0.428390 -0.566167 1.110213 0.416141 0.723900 0.138191 -0.474049 0.545908 -0.068023 0.245969 0.109503 0.289573 0.546972 0.209019 0.993440 0.072310 0.598322 -0.022642 -0.898549 0.233187 0.917920 -0.355971
199 -0.509008 0.542853 0.102633 0.091027 0.414753 -0.632270 -0.085063 -0.461028 0.164521 -0.733484 0.048660 -0.178247 -0.238494 -0.125159 -0.546848 0.598366 -0.503725 -0.124470 0.226401 -0.249185 -0.556391 0.032590 0.096313 -0.160145 -0.411603 0.493063 -0.226392 -0.642525 -0.109516 0.375382 0.046583 0.826964 0.327680 -0.396568 -0.454173 -0.629589 0.408502 -0.483499 -0.148615 0.615329 -0.041063 0.293186 -0.020652 0.000967 0.019995 0.334806 -0.532836 0.062337 0.143206 -0.391320
200 -0.646652 0.023046 0.363370 -0.508586 0.296313 -0.321599 0.374245 -0.402817 0.491892 -0.387008 -0.005928 -0.160310 -0.338284 0.574606 -0.303870 0.496557 0.162411 0.040565 0.633602 -0.696596 -1.207325 0.918984 -0.053068 0.025119 -0.096402 0.516413 -0.282957 -0.398819 -0.241258 -0.360856 -0.532627 0.531932 0.348989 0.319078 -0.441928 -0.244665 0.055429 -0.650130 -0.080327 0.122739 -0.446489 0.427832 0.110432 -0.057625 -0.448467 -0.177739 -0.829064 -0.241934 -0.018332 -0.332155
201 -0.870412 0.006702 -0.506219 -0.403405 -0.095669 0.205438 -0.189911 -0.448036 0.149162 -0.332470 -0.366101 -0.146080 -0.011501 0.263525 -0.639947 0.397507 0.084287 -0.102966 -0.074875 -0.680220 -0.923239 0.273331 0.115339 0.052399 -0.498076 0.725148 0.151600 -0.147731 0.030761 -0.403835 0.163803 0.270883 0.029797 -0.241601 -0.562524 -0.039681 0.251803 0.023075 -0.306650 0.346385 0.428518 0.285345 0.263373 -0.160934 0.038936 0.067155 -0.770051 0.211917 0.911855 -0.496182
202 -0.438138 0.285161 0.165800 -0.200001 0.445330 -0.110409 -0.071559 -0.437142 0.556161 -0.461739 0.144219 -0.312915 0.512095 0.154099 -0.593779 0.769368 0.064425 -0.223664 0.000329 -0.331978 -0.347017 0.014842 0.143184 0.142589 0.206354 0.439983 -0.308334 -0.156871 -0.253966 -0.471117 0.183716 0.586232 0.369806 0.152083 -0.143102 -0.215578 0.460174 0.004230 0.093898 0.320336 -0.421343 0.338330 0.150841 -0.528799 -0.108598 -0.087038 -0.323522 -0.420293 0.317932 -0.688209
203 -0.052276 0.343022 -0.119167 0.067542 0.278553 0.089845 0.168232 -0.050316 0.404589 -0.266630 -0.164221 0.258135 0.038677 -0.113808 -0.329932 0.333566 0.115728 -0.170868 0.514099 -0.176194 -0.513273 0.609525 0.276922 -0.702253 -0.326989 0.109740 0.333711 -0.176228 -0.427557 0.068109 0.034016 0.134448 0.499343 -0.035819 -0.524867 0.140472 0.378281 0.410081 -0.151300 0.346718 0.440075 -0.082838 0.406402 -0.122613 0.183671 -0.112184 0.033821 0.168545 0.005656 -0.012521
204 -0.472713 0.089871 0.145406 0.056906 0.500893 0.135481 -0.079315 -0.329141 0.294643 -0.180352 0.342010 -0.476203 -0.259463 -0.112820 0.412561 -0.004056 0.334073 0.161934 0.357643 -0.289909 0.166975 -0.174987 0.166111 -0.140829 0.099181 0.401529 0.408140 0.082169 -0.292592 -0.054551 0.461823 0.574209 0.304598 0.011005 0.307867 0.277435 -0.279359 -0.127431 0.053292 0.136266 0.196336 -0.028273 -0.059304 -0.218795 -0.206682 0.048628 -0.652414 -0.383260 0.394469 0.097747
205 -0.340565 0.227676 0.010221 0.293592 0.722496 -0.284899 0.620020 -0.184542 -0.203778 -0.138625 0.407806 -0.048457 0.376793 0.240661 -0.121263 0.417358 -0.497982 -0.115137 -0.044303 -0.958503 -0.732215 -0.231325 0.288154 -0.021208 0.369125 0.712992 -0.173511 0.037595 0.027904 0.364413 0.135497 0.143249 -0.017328 -0.252444 -0.458351 -0.721686 0.462711 -0.022961 0.320812 0.659033 0.007443 0.158538 -0.041874 -0.309755 -0.010518 0.381699 -0.300715 -0.285430 0.319183 -0.001031
206 -1.320710 0.031679 -0.455230 0.514102 0.616824 -0.256956 0.367706 -0.888071 -0.032116 -0.197103 -0.310264 -0.223904 0.191426 0.312285 -0.741146 0.614492 0.575750 0.115212 0.301537 -0.278187 -0.975849 -0.621093 0.630902 -0.044673 0.149880 0.276515 0.340120 -0.463565 -0.085916 0.055732 0.034548 0.679708 0.872032 0.111491 -0.897997 -0.565702 -0.353819 0.204299 0.653699 0.377443 0.044453 0.280734 0.279526 -0.233737 -0.100498 0.292087 -0.952455 1.080243 0.327129 -0.323743
207 -0.445121 0.021792 0.446138 0.077346 0.318219 -0.042287 0.381190 -0.087917 0.038719 0.069487 -0.454232 0.131179 -0.193547 0.021033 0.044637 -0.088890 0.394611 -0.236877 0.588134 -0.172788 -0.769431 0.250015 -0.004681 -0.058745 -0.336531 -0.035494 0.128807 -0.784992 -0.705863 0.541773 0.224613 0.503574 0.488418 0.183574 -0.226415 0.023406 0.177588 0.404337 -0.017415 0.047570 -0.022030 0.121474 0.001481 -0.099366 -0.205911 0.119989 -0.291062 0.002882 0.653303 -0.363751
